{"learner":{"attributes":{"best_iteration":"99","best_ntree_limit":"100","scikit_learn":"{\"use_label_encoder\": false, \"n_estimators\": 100, \"objective\": \"binary:logistic\", \"max_depth\": null, \"learning_rate\": null, \"verbosity\": null, \"booster\": null, \"tree_method\": null, \"gamma\": null, \"min_child_weight\": null, \"max_delta_step\": null, \"subsample\": null, \"colsample_bytree\": null, \"colsample_bylevel\": null, \"colsample_bynode\": null, \"reg_alpha\": null, \"reg_lambda\": null, \"scale_pos_weight\": null, \"base_score\": null, \"missing\": NaN, \"num_parallel_tree\": null, \"random_state\": null, \"n_jobs\": null, \"monotone_constraints\": null, \"interaction_constraints\": null, \"importance_type\": null, \"gpu_id\": null, \"validate_parameters\": null, \"predictor\": null, \"enable_categorical\": false, \"kwargs\": {\"eval_metric\": \"logloss\"}, \"classes_\": [0, 1], \"n_classes_\": 2, \"_estimator_type\": \"classifier\"}"},"feature_names":["channel_1","channel_2","channel_3","channel_4","channel_5","channel_6","channel_7","channel_8","channel_9","channel_10","channel_11","channel_12","channel_13","channel_14","channel_15","channel_16"],"feature_types":["float","float","float","float","float","float","float","float","float","float","float","float","float","float","float","float"],"gradient_booster":{"model":{"gbtree_model_param":{"num_trees":"100","size_leaf_vector":"0"},"tree_info":[0,0,0,0,0,0,0,0,0,0,0,0,0,0,0,0,0,0,0,0,0,0,0,0,0,0,0,0,0,0,0,0,0,0,0,0,0,0,0,0,0,0,0,0,0,0,0,0,0,0,0,0,0,0,0,0,0,0,0,0,0,0,0,0,0,0,0,0,0,0,0,0,0,0,0,0,0,0,0,0,0,0,0,0,0,0,0,0,0,0,0,0,0,0,0,0,0,0,0,0],"trees":[{"base_weights":[-7.410645E-1,1.7140912E0,-1.2647251E0,1.7547628E0,-5.4545456E-1,-1.6101516E0,1.6972222E0,1.8815207E0,1.2877584E0,-1.7647059E0,1.2E0,-1.6825022E0,9.072978E-2,6.7741936E-1,1.90301E0,1.8883474E0,-6.666667E-1,3.4108528E-1,1.9253334E0,-0E0,1.5789474E0,1.8095238E0,-1.7068936E0,5.766234E-1,-1.3968254E0,-4E-1,1.7165354E0,1.8899245E0,5E-1,-1.5789474E0,6.6071427E-1,1.9568733E0,-5E-1,-1.8984485E0,-1.4142367E0,1.5625E0,8.429119E-2,1.2727273E0,-1.5966387E0,1.6666666E0,-1.1827956E0,5.4545456E-1,1.7666667E0,-0E0,-1.7647059E0,9.497207E-1,-4.489796E-1,1.9779005E0,7.692308E-1,-9.0909094E-1,-1.9372342E0,-1.0309278E-1,-1.4698256E0,1.8E0,-1.3333334E0,-6.2721896E-1,1.3333334E0,-0E0,-1.8095238E0,1.8181819E-1,-1.8125E0,5E-1,1.7931035E0],"categories":[],"categories_nodes":[],"categories_segments":[],"categories_sizes":[],"default_left":[true,true,true,true,true,true,true,true,true,false,true,true,true,true,false,true,false,true,true,false,false,false,true,true,true,true,true,false,false,true,true,true,false,true,true,true,true,false,true,false,true,false,true,false,false,false,false,false,false,false,false,false,false,false,false,false,false,false,false,false,false,false,false],"id":0,"left_children":[1,3,5,7,9,11,13,15,17,-1,19,21,23,25,-1,27,-1,29,31,-1,-1,-1,33,35,37,39,41,-1,-1,43,45,47,-1,49,51,53,55,-1,57,-1,59,-1,61,-1,-1,-1,-1,-1,-1,-1,-1,-1,-1,-1,-1,-1,-1,-1,-1,-1,-1,-1,-1],"loss_changes":[5.3707974E3,6.845703E1,3.5246196E3,4.0302246E1,3.137968E1,3.7957617E2,7.42616E1,1.1095947E1,9.425549E1,0E0,2.842105E0,2.5499512E2,9.241952E1,7.009956E1,0E0,2.906494E-1,0E0,4.0626762E1,8.149841E0,0E0,0E0,0E0,1.6199121E2,4.6586002E1,1.8834568E1,5.2526882E1,9.003372E-1,0E0,0E0,2.7863789E0,1.8386087E1,7.9473877E-1,0E0,6.625488E1,8.4832275E1,2.4408333E1,5.882437E1,0E0,1.0112038E1,0E0,2.0308346E1,0E0,1.08047485E-1,0E0,0E0,0E0,0E0,0E0,0E0,0E0,0E0,0E0,0E0,0E0,0E0,0E0,0E0,0E0,0E0,0E0,0E0,0E0,0E0],"parents":[2147483647,0,0,1,1,2,2,3,3,4,4,5,5,6,6,7,7,8,8,10,10,11,11,12,12,13,13,15,15,17,17,18,18,22,22,23,23,24,24,25,25,26,26,29,29,30,30,31,31,33,33,34,34,35,35,36,36,38,38,40,40,42,42],"right_children":[2,4,6,8,10,12,14,16,18,-1,20,22,24,26,-1,28,-1,30,32,-1,-1,-1,34,36,38,40,42,-1,-1,44,46,48,-1,50,52,54,56,-1,58,-1,60,-1,62,-1,-1,-1,-1,-1,-1,-1,-1,-1,-1,-1,-1,-1,-1,-1,-1,-1,-1,-1,-1],"split_conditions":[-1.2908581E1,-3.1365128E0,2.3030708E1,-2.8400576E1,-1.3022339E1,1.2213078E1,4.0254955E1,-1.5387114E1,-8.122478E0,-5.294118E-1,8.762659E0,-1.6596903E0,1.2756197E1,1.1518364E1,5.70903E-1,-1.6104E1,-2.0000002E-1,-2.79628E1,4.4068265E0,-0E0,4.7368425E-1,5.4285717E-1,8.879078E0,3.0522668E0,-3.3286045E0,3.69903E0,1.2101322E1,5.669774E-1,1.5E-1,9.787222E0,-1.4591303E1,2.4864283E0,-1.5E-1,-6.939865E0,-8.155086E0,9.892922E0,1.09458E1,3.818182E-1,2.9157565E0,5E-1,2.8153757E1,1.6363637E-1,2.191597E1,-0E0,-5.294118E-1,2.8491622E-1,-1.3469388E-1,5.933702E-1,2.3076925E-1,-2.7272728E-1,-5.8117026E-1,-3.0927835E-2,-4.409477E-1,5.4E-1,-4.0000004E-1,-1.881657E-1,4.0000004E-1,-0E0,-5.4285717E-1,5.454546E-2,-5.4375005E-1,1.5E-1,5.379311E-1],"split_indices":[10,7,2,10,8,15,2,7,15,0,0,0,4,0,0,7,0,13,12,0,0,0,0,5,0,0,0,0,0,0,10,11,0,10,4,6,0,0,12,0,5,0,1,0,0,0,0,0,0,0,0,0,0,0,0,0,0,0,0,0,0,0,0],"split_type":[0,0,0,0,0,0,0,0,0,0,0,0,0,0,0,0,0,0,0,0,0,0,0,0,0,0,0,0,0,0,0,0,0,0,0,0,0,0,0,0,0,0,0,0,0,0,0,0,0,0,0,0,0,0,0,0,0,0,0,0,0,0,0],"sum_hessian":[4.17475E3,7.335E2,3.44125E3,7.2075E2,1.275E1,3.08225E3,3.59E2,5.645E2,1.5625E2,7.5E0,5.25E0,2.9565E3,1.2575E2,6.1E1,2.98E2,5.6325E2,1.25E0,6.35E1,9.275E1,1.5E0,3.75E0,2E1,2.9365E3,9.525E1,3.05E1,3.025E1,3.075E1,5.6225E2,1E0,8.5E0,5.5E1,9.175E1,1E0,1.7715E3,1.165E3,3.1E1,6.425E1,1.75E0,2.875E1,8E0,2.225E1,1.75E0,2.9E1,1E0,7.5E0,4.375E1,1.125E1,8.95E1,2.25E0,6.775E1,1.70375E3,4.75E1,1.1175E3,2.9E1,2E0,4.125E1,2.3E1,3.5E0,2.525E1,7.25E0,1.5E1,1E0,2.8E1],"tree_param":{"num_deleted":"0","num_feature":"16","num_nodes":"63","size_leaf_vector":"0"}},{"base_weights":[-5.601401E-1,1.2868205E0,-9.6125084E-1,1.4419706E0,8.1532276E-1,-1.225102E0,1.2908646E0,1.4477925E0,-5.590095E-1,-1.1185293E0,1.0677077E0,-1.2699207E0,4.196077E-1,5.054126E-1,1.4615107E0,1.5576969E0,1.3933326E0,4.7126076E-1,-1.549841E0,4.121495E-1,1.4522305E0,1.4124931E0,-1.2891014E0,1.333088E0,-1.22535855E-1,-3.3382016E-1,1.331224E0,-1.2479606E0,1.4226515E0,1.3398901E0,-1.2826031E0,8.0692655E-1,-4.061102E-1,1.5460207E0,4.2442832E-2,-1.4205976E0,-9.295168E-1,1.4992998E0,-7.9414815E-1,-5.273598E-1,1.0527039E0,1.3262217E0,-9.368159E-1,1.4030921E0,3.1148586E-1,3.7577233E-1,-1.9280517E0,3.8145903E-1,1.4325272E0,1.22959554E-1,1.6024092E0,-1.0111314E0,1.7458305E0,4.8351386E-1,1.5543171E0,-1.0096164E0,1.1691108E0,-6.4494234E-1,-1.461548E0,8.049727E-1,-9.728996E-1,1.5707072E0,4.4643945E-1,1.4079211E0,-7.911433E-1,1.5796937E0,-7.642338E-1,4.0813595E-1,1.4145452E0,1.1215243E-2,-1.4721375E0,1.4315501E0,3.8975883E-1,-3.6811942E-1,8.5191715E-1],"categories":[],"categories_nodes":[],"categories_segments":[],"categories_sizes":[],"default_left":[true,true,true,true,true,true,true,true,false,true,true,true,true,true,false,false,true,true,false,true,true,false,true,true,true,true,true,true,true,false,false,true,true,true,true,true,true,true,false,true,true,true,true,true,true,false,false,false,false,false,false,false,false,false,false,false,false,false,false,false,false,false,false,false,false,false,false,false,false,false,false,false,false,false,false],"id":1,"left_children":[1,3,5,7,9,11,13,15,-1,17,19,21,23,25,-1,-1,27,29,-1,31,33,-1,35,37,39,41,43,45,47,-1,-1,49,51,53,55,57,59,61,-1,63,65,67,69,71,73,-1,-1,-1,-1,-1,-1,-1,-1,-1,-1,-1,-1,-1,-1,-1,-1,-1,-1,-1,-1,-1,-1,-1,-1,-1,-1,-1,-1,-1,-1],"loss_changes":[2.8906099E3,4.9761353E1,1.9059731E3,6.897583E0,8.646027E1,2.1203711E2,4.4374756E1,9.501953E-1,0E0,1.4894117E1,3.84841E1,1.4554248E2,3.8230064E1,4.313764E1,0E0,0E0,2.9506775E1,9.60231E0,0E0,1.92948E1,1.2803299E1,0E0,1.2984961E2,1.1342609E1,2.3940437E1,3.2626038E1,1.853157E0,5.65412E0,3.1000366E0,0E0,0E0,2.1534811E1,2.7510567E1,5.2627563E-2,9.595257E0,6.3517334E1,5.6895325E1,1.3270302E0,0E0,2.0117498E1,1.3585071E1,1.3365173E-1,1.1985626E1,2.756462E-1,1.5413307E0,0E0,0E0,0E0,0E0,0E0,0E0,0E0,0E0,0E0,0E0,0E0,0E0,0E0,0E0,0E0,0E0,0E0,0E0,0E0,0E0,0E0,0E0,0E0,0E0,0E0,0E0,0E0,0E0,0E0,0E0],"parents":[2147483647,0,0,1,1,2,2,3,3,4,4,5,5,6,6,7,7,9,9,10,10,11,11,12,12,13,13,16,16,17,17,19,19,20,20,22,22,23,23,24,24,25,25,26,26,27,27,28,28,31,31,32,32,33,33,34,34,35,35,36,36,37,37,39,39,40,40,41,41,42,42,43,43,44,44],"right_children":[2,4,6,8,10,12,14,16,-1,18,20,22,24,26,-1,-1,28,30,-1,32,34,-1,36,38,40,42,44,46,48,-1,-1,50,52,54,56,58,60,62,-1,64,66,68,70,72,74,-1,-1,-1,-1,-1,-1,-1,-1,-1,-1,-1,-1,-1,-1,-1,-1,-1,-1,-1,-1,-1,-1,-1,-1,-1,-1,-1,-1,-1,-1],"split_conditions":[-1.199385E1,-2.8400576E1,2.2676235E1,-1.5387114E1,-2.4613888E1,1.4661705E1,4.0254955E1,-1.4847087E2,-1.6770285E-1,9.594312E0,-8.122478E0,-1.6596903E0,5.9275465E0,1.1362419E1,4.3845323E-1,4.673091E-1,-9.231925E1,-1.8499586E1,-4.6495232E-1,-1.4591303E1,3.3530579E0,4.2374796E-1,9.863049E0,9.898114E0,1.1810439E1,3.5904202E0,3.7033264E1,-4.666188E0,-8.8259995E1,4.0196705E-1,-3.8478097E-1,8.181633E0,-1.1026949E1,-3.325123E1,8.783457E0,-5.96192E0,-9.8136215E0,1.5208822E1,-2.3824446E-1,3.9929614E0,1.9238422E1,1.8707535E1,2.3285797E1,3.75956E1,1.947829E1,1.127317E-1,-5.784155E-1,1.14437714E-1,4.2975816E-1,3.688787E-2,4.8072278E-1,-3.0333942E-1,5.237492E-1,1.4505416E-1,4.6629515E-1,-3.0288494E-1,3.5073325E-1,-1.9348271E-1,-4.384644E-1,2.4149182E-1,-2.918699E-1,4.7121218E-1,1.3393185E-1,4.2237633E-1,-2.37343E-1,4.7390813E-1,-2.2927016E-1,1.2244079E-1,4.2436358E-1,3.364573E-3,-4.4164124E-1,4.2946506E-1,1.1692765E-1,-1.1043583E-1,2.5557515E-1],"split_indices":[10,10,2,7,13,15,2,5,0,0,15,0,1,0,0,0,13,5,0,10,11,0,0,5,0,0,5,0,13,0,0,0,8,5,0,10,4,8,0,0,14,12,11,11,0,0,0,0,0,0,0,0,0,0,0,0,0,0,0,0,0,0,0,0,0,0,0,0,0,0,0,0,0,0,0],"split_type":[0,0,0,0,0,0,0,0,0,0,0,0,0,0,0,0,0,0,0,0,0,0,0,0,0,0,0,0,0,0,0,0,0,0,0,0,0,0,0,0,0,0,0,0,0,0,0,0,0,0,0,0,0,0,0,0,0,0,0,0,0,0,0,0,0,0,0,0,0,0,0,0,0,0,0],"sum_hessian":[3.8991523E3,6.9530994E2,3.2038425E3,5.216114E2,1.7369853E2,2.8682615E3,3.3558096E2,5.203738E2,1.2375829E0,1.965603E1,1.540425E2,2.792396E3,7.586557E1,6.060216E1,2.7497882E2,1.6327312E2,3.5710068E2,4.1749144E0,1.5481117E1,5.7716198E1,9.632631E1,1.9309568E1,2.7730864E3,2.7712574E1,4.8152996E1,3.0352316E1,3.0249847E1,3.464069E0,3.5363663E2,2.9499428E0,1.2249714E0,3.8942078E1,1.877412E1,9.022705E1,6.0992584E0,2.0283793E3,7.447071E2,2.5977972E1,1.7346007E0,3.622588E1,1.1927118E1,7.7679186E0,2.2584396E1,2.79071E1,2.342746E0,1.1546897E0,2.3093793E0,3.6950068E0,3.4994162E2,2.1559498E1,1.738258E1,1.5067891E1,3.7062285E0,1.1583536E0,8.9068695E1,3.207786E0,2.8914723E0,1.0255719E2,1.925822E3,1.7743616E1,7.2696344E2,2.3867384E1,2.110589E0,3.8251054E0,3.2400772E1,9.346737E0,2.5803814E0,1.1750185E0,6.5929003E0,8.503722E0,1.4080675E1,2.674334E1,1.1637608E0,1.1789852E0,1.1637608E0],"tree_param":{"num_deleted":"0","num_feature":"16","num_nodes":"75","size_leaf_vector":"0"}},{"base_weights":[-4.5962262E-1,1.0665929E0,-7.9294103E-1,1.203629E0,5.669788E-1,-1.0053116E0,1.1366575E0,1.211461E0,-3.0170107E-1,-3.3426645E-1,1.0828663E0,-1.0662819E0,1.8882468E-2,5.4095906E-1,1.2434171E0,1.3456426E0,1.1533031E0,-1.1549405E0,7.623367E-1,1.9124958E-1,-1.4333657E0,1.2517215E0,-7.6638855E-2,-1.281364E0,-8.8472795E-1,7.736148E-1,-4.039677E-1,9.862725E-1,-4.4085586E-1,-9.293326E-1,1.1785482E0,1.4422756E0,-1.6245875E-1,7.933354E-1,1.4449122E0,-1.2335124E0,9.5342225E-1,1.1041685E0,-1.3166517E0,-1.7064708E-1,-9.8839056E-1,3.5467306E-1,1.6826799E0,-7.501657E-1,4.5313945E-1,6.51757E-2,1.202692E0,-9.363265E-1,1.053531E0,-1.4793364E0,3.958141E-1,4.544575E-1,1.1915392E0,-1.3201263E0,4.696093E-1,1.0283403E0,-5.426704E-1,4.0187094E-1,1.4589888E0,1.2993433E0,-6.371796E-2,1.2740059E0,3.47899E-1,-7.471616E-1,-1.3300163E0,-1.5073487E0,5.036358E-1,-1.1080052E0,-7.3579407E-1,1.1134229E0,-8.221596E-1,5.4260947E-2,1.9087188E0,-1.1322684E0,3.4736258E-1,8.780861E-1,-1.3550539E0,8.749719E-1,-9.558678E-1,1.3057593E0,2.1468874E-3,-1.2045535E0,4.929693E-1],"categories":[],"categories_nodes":[],"categories_segments":[],"categories_sizes":[],"default_left":[true,true,true,true,true,true,true,true,true,true,true,true,true,true,false,false,true,false,false,true,false,true,true,true,true,true,true,true,true,true,true,false,true,true,true,false,true,true,true,true,true,true,true,true,true,true,true,true,false,false,false,false,false,false,false,false,false,false,false,false,false,false,false,false,false,false,false,false,false,false,false,false,false,false,false,false,false,false,false,false,false,false,false],"id":2,"left_children":[1,3,5,7,9,11,13,15,17,19,21,23,25,27,-1,-1,29,-1,-1,31,-1,33,35,37,39,41,43,45,47,49,51,-1,53,55,57,-1,59,61,63,65,67,69,71,73,75,77,79,81,-1,-1,-1,-1,-1,-1,-1,-1,-1,-1,-1,-1,-1,-1,-1,-1,-1,-1,-1,-1,-1,-1,-1,-1,-1,-1,-1,-1,-1,-1,-1,-1,-1,-1,-1],"loss_changes":[1.7307988E3,4.10802E1,1.1451301E3,5.998535E0,6.228596E1,1.5709473E2,1.6959717E1,2.1588745E0,3.8525038E0,2.8720016E1,1.6725784E1,9.157178E1,4.572936E1,1.9631659E1,0E0,0E0,1.8904663E1,0E0,0E0,1.5368015E1,0E0,5.424423E0,1.516511E1,9.274463E1,9.536694E1,1.899557E1,2.7599289E1,6.0046673E0,1.1642361E1,3.9498277E0,2.6108704E0,0E0,2.0787018E1,8.161486E0,1.6220856E-1,0E0,2.466228E0,1.6570663E0,7.1433105E0,1.4930971E2,3.322998E1,3.3491425E1,5.7717934E0,2.7992943E1,2.1977669E1,6.5109854E0,3.047615E0,4.940363E0,0E0,0E0,0E0,0E0,0E0,0E0,0E0,0E0,0E0,0E0,0E0,0E0,0E0,0E0,0E0,0E0,0E0,0E0,0E0,0E0,0E0,0E0,0E0,0E0,0E0,0E0,0E0,0E0,0E0,0E0,0E0,0E0,0E0,0E0,0E0],"parents":[2147483647,0,0,1,1,2,2,3,3,4,4,5,5,6,6,7,7,8,8,9,9,10,10,11,11,12,12,13,13,16,16,19,19,21,21,22,22,23,23,24,24,25,25,26,26,27,27,28,28,29,29,30,30,32,32,33,33,34,34,36,36,37,37,38,38,39,39,40,40,41,41,42,42,43,43,44,44,45,45,46,46,47,47],"right_children":[2,4,6,8,10,12,14,16,18,20,22,24,26,28,-1,-1,30,-1,-1,32,-1,34,36,38,40,42,44,46,48,50,52,-1,54,56,58,-1,60,62,64,66,68,70,72,74,76,78,80,82,-1,-1,-1,-1,-1,-1,-1,-1,-1,-1,-1,-1,-1,-1,-1,-1,-1,-1,-1,-1,-1,-1,-1,-1,-1,-1,-1,-1,-1,-1,-1,-1,-1,-1,-1],"split_conditions":[-1.1391038E1,-2.4175634E1,2.5067013E1,-1.2731325E1,-1.3470451E1,1.1164356E1,4.0254955E1,-1.4847087E2,-1.3849922E1,1.0439644E1,3.3530579E0,8.066774E0,5.839617E0,1.9750248E1,3.7302515E-1,4.0369278E-1,-9.231925E1,-3.4648216E-1,2.2870101E-1,-2.3048306E1,-4.3000972E-1,-1.0149248E1,7.8996997E0,3.3502202E0,-2.9488125E0,6.757497E0,1.7027988E1,9.248861E0,2.3898914E1,-1.6575928E2,-8.5223526E1,4.3268272E-1,6.7094016E0,-1.3050085E1,-1.6447824E1,-3.7005374E-1,-3.8066049E0,-1.248234E1,-8.596088E0,-8.850878E0,1.0640743E1,1.0188032E0,3.3057673E0,1.4000385E1,4.3519432E1,3.873816E0,3.649974E1,1.3078345E1,3.1605932E-1,-4.4380093E-1,1.1874423E-1,1.3633725E-1,3.5746175E-1,-3.960379E-1,1.4088279E-1,3.085021E-1,-1.6280113E-1,1.2056129E-1,4.3769667E-1,3.8980302E-1,-1.9115388E-2,3.822018E-1,1.043697E-1,-2.241485E-1,-3.990049E-1,-4.522046E-1,1.5109076E-1,-3.3240157E-1,-2.2073823E-1,3.3402687E-1,-2.4664788E-1,1.6278286E-2,5.726157E-1,-3.3968055E-1,1.04208775E-1,2.6342583E-1,-4.065162E-1,2.6249158E-1,-2.8676036E-1,3.917278E-1,6.4406625E-4,-3.6136606E-1,1.4789079E-1],"split_indices":[10,10,2,7,13,15,2,5,4,0,11,0,4,4,0,0,13,0,0,12,0,11,0,0,10,7,15,0,15,1,13,0,0,10,4,0,14,0,9,1,0,2,12,12,15,0,11,0,0,0,0,0,0,0,0,0,0,0,0,0,0,0,0,0,0,0,0,0,0,0,0,0,0,0,0,0,0,0,0,0,0,0,0],"split_type":[0,0,0,0,0,0,0,0,0,0,0,0,0,0,0,0,0,0,0,0,0,0,0,0,0,0,0,0,0,0,0,0,0,0,0,0,0,0,0,0,0,0,0,0,0,0,0,0,0,0,0,0,0,0,0,0,0,0,0,0,0,0,0,0,0,0,0,0,0,0,0,0,0,0,0,0,0,0,0,0,0,0,0],"sum_hessian":[3.3996274E3,6.0898334E2,2.7906443E3,4.7679657E2,1.3218675E2,2.5143909E3,2.762534E2,4.7452295E2,2.2736201E0,4.8248905E1,8.393784E1,2.37308E3,1.4131067E2,4.2907085E1,2.3334631E2,1.367881E2,3.3773486E2,1.2143861E0,1.0592339E0,3.3200592E1,1.5048316E1,7.3198616E1,1.0739224E1,1.0834675E3,1.2896125E3,5.0444427E1,9.086624E1,2.9515469E1,1.3391619E1,3.6159728E0,3.341189E2,6.639578E0,2.6561014E1,2.3217234E1,4.998138E1,4.9652176E0,5.774007E0,1.5351958E1,1.0681156E3,1.6381535E2,1.1257972E3,3.5482502E1,1.4961925E1,6.4812355E1,2.605388E1,5.8630533E0,2.3652414E1,1.03375845E1,3.0540345E0,2.4731374E0,1.1428354E0,6.5230036E0,3.275959E2,8.995915E0,1.7565098E1,1.9940044E1,3.277189E0,1.0590276E0,4.892235E1,4.101629E0,1.6723783E0,1.1977539E1,3.3744187E0,2.5796215E1,1.0423195E3,5.4513016E1,1.0930234E2,7.617103E2,3.6408685E2,2.1606094E1,1.3876409E1,1.9748504E0,1.2987074E1,4.8051613E1,1.6760746E1,2.151256E1,4.5413194E0,3.349558E0,2.5134952E0,2.1701677E1,1.9507375E0,8.836529E0,1.5010562E0],"tree_param":{"num_deleted":"0","num_feature":"16","num_nodes":"83","size_leaf_vector":"0"}},{"base_weights":[-3.9116013E-1,9.2456794E-1,-6.7370856E-1,1.111579E0,5.6604594E-1,-8.6753625E-1,8.765253E-1,1.1269852E0,7.077637E-1,-1.5048267E-1,1.0988895E0,-1.1091973E0,-6.341546E-1,1.8068981E-1,1.0783831E0,1.2287143E0,1.0703759E0,-1.4330874E-1,1.1333499E0,-1.4062521E0,1.953068E-1,-1.2818567E-1,1.1719884E0,1.127845E0,-1.1491414E0,-7.408386E-1,7.2970375E-2,-5.7610416E-1,1.1895491E0,6.574164E-1,1.103968E0,-4.432265E-1,1.1116543E0,7.659513E-1,-1.8911663E0,-3.1295773E-1,-1.4564519E0,-5.7341546E-1,8.7263E-1,9.3846184E-1,-1.229124E0,1.2610836E0,5.683606E-2,3.162144E-1,1.1732612E0,-8.250823E-1,-1.2024281E0,-5.7614654E-1,-1.0728287E0,1.411059E0,-1.383461E-1,1.0413964E0,-9.5407486E-1,1.515817E0,-5.327374E-1,1.082464E0,-5.881918E-1,1.0459664E0,1.2283859E0,-1.4280764E0,7.240165E-1,7.1069574E-1,1.1434484E0,8.9307636E-1,2.037249E-1,-8.7875885E-1,1.1486185E0,1.1918762E0,-6.211935E-1,-6.474198E-1,1.1678607E0,1.2088504E0,3.3040005E-1,-1.0855782E0,3.77703E-2,-1.2304633E0,-1.0741105E0,-6.6945946E-1,1.305631E0,-5.5042267E-1,-1.1346424E0,1.5126915E0,-2.7618352E-2,-9.1897E-1,3.0572894E-1,1.1547996E0,2.1541046E-1,-1.1227598E0,-6.0581315E-2,2.009892E0,1.0534226E0,5.235625E-1,-1.1724563E0,4.728748E-1,1.2111433E0,8.417693E-2,-8.3776385E-1,1.0943954E0,-1.4236684E0],"categories":[],"categories_nodes":[],"categories_segments":[],"categories_sizes":[],"default_left":[true,true,true,true,true,true,true,true,true,true,true,true,true,true,true,false,true,true,false,true,true,true,true,true,true,true,true,true,true,true,true,true,true,true,false,false,false,true,true,false,false,false,true,false,true,true,true,true,true,true,true,true,true,true,true,true,true,true,false,false,false,false,false,false,false,false,false,false,false,false,false,false,false,false,false,false,false,false,false,false,false,false,false,false,false,false,false,false,false,false,false,false,false,false,false,false,false,false,false],"id":3,"left_children":[1,3,5,7,9,11,13,15,17,19,21,23,25,27,29,-1,31,33,-1,35,37,39,41,43,45,47,49,51,53,55,57,59,61,63,-1,-1,-1,65,67,-1,-1,-1,69,-1,71,73,75,77,79,81,83,85,87,89,91,93,95,97,-1,-1,-1,-1,-1,-1,-1,-1,-1,-1,-1,-1,-1,-1,-1,-1,-1,-1,-1,-1,-1,-1,-1,-1,-1,-1,-1,-1,-1,-1,-1,-1,-1,-1,-1,-1,-1,-1,-1,-1,-1],"loss_changes":[1.0761863E3,3.369171E1,7.165901E2,1.2888184E0,6.7940285E1,1.1875281E2,3.7063034E1,5.3549194E-1,5.6002536E0,3.3531548E1,9.292915E0,9.415845E1,8.15141E1,4.7142357E1,1.486557E0,0E0,1.3877426E1,1.0813275E1,0E0,4.5842743E-1,3.2225014E1,8.941549E0,9.495728E0,3.196106E-1,1.6647095E1,5.0687256E1,4.047881E1,2.2660946E1,1.5646206E1,8.176495E0,1.0192871E-1,8.393622E0,1.8494873E0,1.4596581E-1,0E0,0E0,0E0,1.6333027E1,1.6376478E1,0E0,0E0,0E0,7.1498775E0,0E0,1.2174988E-1,3.318022E1,1.826294E0,1.11387314E2,9.385345E0,2.8958511E0,4.3247543E1,4.248314E-1,4.3404675E0,3.014141E0,3.9558253E0,2.8777504E-1,7.872329E-1,1.8039246E1,0E0,0E0,0E0,0E0,0E0,0E0,0E0,0E0,0E0,0E0,0E0,0E0,0E0,0E0,0E0,0E0,0E0,0E0,0E0,0E0,0E0,0E0,0E0,0E0,0E0,0E0,0E0,0E0,0E0,0E0,0E0,0E0,0E0,0E0,0E0,0E0,0E0,0E0,0E0,0E0,0E0],"parents":[2147483647,0,0,1,1,2,2,3,3,4,4,5,5,6,6,7,7,8,8,9,9,10,10,11,11,12,12,13,13,14,14,16,16,17,17,19,19,20,20,21,21,22,22,23,23,24,24,25,25,26,26,27,27,28,28,29,29,30,30,31,31,32,32,33,33,37,37,38,38,42,42,44,44,45,45,46,46,47,47,48,48,49,49,50,50,51,51,52,52,53,53,54,54,55,55,56,56,57,57],"right_children":[2,4,6,8,10,12,14,16,18,20,22,24,26,28,30,-1,32,34,-1,36,38,40,42,44,46,48,50,52,54,56,58,60,62,64,-1,-1,-1,66,68,-1,-1,-1,70,-1,72,74,76,78,80,82,84,86,88,90,92,94,96,98,-1,-1,-1,-1,-1,-1,-1,-1,-1,-1,-1,-1,-1,-1,-1,-1,-1,-1,-1,-1,-1,-1,-1,-1,-1,-1,-1,-1,-1,-1,-1,-1,-1,-1,-1,-1,-1,-1,-1,-1,-1],"split_conditions":[-1.1391038E1,-2.966247E1,1.8386456E1,4.185714E1,-6.8308945E0,8.441802E0,3.307489E1,-1.472604E2,-6.106526E1,-3.0892288E1,-2.4495289E1,2.9226744E0,8.460968E0,1.0538677E1,4.0254955E1,3.6861432E-1,-1.0088157E2,5.6312213E0,3.4000498E-1,-2.8187326E1,8.173172E0,-2.559627E1,2.587326E0,-1.701974E1,-1.4071577E0,4.8868494E0,-2.921558E0,3.5545511E0,2.8187054E1,3.6658745E1,2.2008557E2,-1.4278009E2,-7.715387E1,5.2637787E0,-5.673499E-1,-9.388732E-2,-4.3693557E-1,-1.0984557E1,1.132826E1,2.8153858E-1,-3.687372E-1,3.783251E-1,9.446723E0,9.486433E-2,2.5786934E1,7.801465E0,7.915803E0,1.4159157E1,3.3654108E0,8.159874E0,6.643285E0,3.107988E1,9.639928E0,1.8518484E1,1.5319061E1,2.6181557E1,4.00792E1,1.7348572E2,3.685158E-1,-4.2842293E-1,2.1720496E-1,2.1320873E-1,3.430345E-1,2.679229E-1,6.1117474E-2,-2.6362768E-1,3.4458554E-1,3.5756287E-1,-1.8635806E-1,-1.9422595E-1,3.5035825E-1,3.6265513E-1,9.912002E-2,-3.2567346E-1,1.1331091E-2,-3.69139E-1,-3.2223317E-1,-2.0083785E-1,3.9168933E-1,-1.651268E-1,-3.403927E-1,4.5380747E-1,-8.285506E-3,-2.75691E-1,9.171869E-2,3.464399E-1,6.462314E-2,-3.3682796E-1,-1.8174395E-2,6.029676E-1,3.1602678E-1,1.5706876E-1,-3.517369E-1,1.4186244E-1,3.63343E-1,2.525308E-2,-2.5132915E-1,3.2831863E-1,-4.2710054E-1],"split_indices":[10,12,2,15,15,0,2,6,11,11,14,0,15,0,2,0,14,0,0,10,0,7,11,4,2,10,10,0,5,7,11,11,13,0,0,0,0,8,0,0,0,0,0,0,13,0,0,5,1,5,13,2,0,6,4,5,5,9,0,0,0,0,0,0,0,0,0,0,0,0,0,0,0,0,0,0,0,0,0,0,0,0,0,0,0,0,0,0,0,0,0,0,0,0,0,0,0,0,0],"split_type":[0,0,0,0,0,0,0,0,0,0,0,0,0,0,0,0,0,0,0,0,0,0,0,0,0,0,0,0,0,0,0,0,0,0,0,0,0,0,0,0,0,0,0,0,0,0,0,0,0,0,0,0,0,0,0,0,0,0,0,0,0,0,0,0,0,0,0,0,0,0,0,0,0,0,0,0,0,0,0,0,0,0,0,0,0,0,0,0,0,0,0,0,0,0,0,0,0,0,0],"sum_hessian":[2.8921904E3,5.1088898E2,2.3813015E3,3.3437366E2,1.7651532E2,2.1170452E3,2.642564E2,3.203605E2,1.4013153E1,7.558789E1,1.0092743E2,1.0382302E3,1.0788148E3,5.984759E1,2.0440883E2,1.0713308E2,2.1322743E2,4.892524E0,9.120629E0,1.5657888E1,5.993E1,5.632016E0,9.529541E1,1.7735466E1,1.02049475E3,9.373493E2,1.4146558E2,3.4440823E1,2.5406769E1,1.3241006E1,1.9116782E2,5.4021697E0,2.0782526E2,3.5878506E0,1.304673E0,1.0049713E0,1.4652918E1,2.8142883E1,3.1787117E1,2.9355142E0,2.6965022E0,8.812388E1,7.1715336E0,1.3617783E0,1.6373688E1,1.4643636E2,8.740584E2,6.283673E2,3.0898196E2,1.8519535E1,1.2294604E2,6.1911163E0,2.8249706E1,2.1461086E1,3.9456828E0,9.969887E0,3.2711186E0,1.3680046E2,5.4367355E1,2.808806E0,2.5933638E0,1.6984518E1,1.9084074E2,2.446262E0,1.1415888E0,2.4320227E1,3.8226569E0,2.6356565E1,5.4305515E0,4.644657E0,2.5268764E0,1.52937E1,1.0799875E0,1.12280624E2,3.4155743E1,7.1028467E2,1.6377368E2,5.99294E2,2.9073341E1,3.3739964E1,2.75242E2,1.724953E1,1.2700043E0,4.419239E1,7.875365E1,5.0936947E0,1.0974219E0,2.3547514E1,4.7021933E0,8.757196E0,1.270389E1,1.5567542E0,2.3889287E0,2.552556E0,7.4173307E0,1.0649002E0,2.2062185E0,1.3471558E2,2.084884E0],"tree_param":{"num_deleted":"0","num_feature":"16","num_nodes":"99","size_leaf_vector":"0"}},{"base_weights":[-3.3564016E-1,8.762624E-1,-5.6854105E-1,1.0098189E0,5.907685E-1,-7.1626383E-1,9.0259135E-1,1.1519144E0,9.3592995E-1,-3.0982604E-2,1.0040948E0,-9.6036726E-1,-4.4588178E-1,4.160699E-1,1.0006735E0,-3.1114596E-1,9.823554E-1,-1.1010368E0,2.736384E-1,-3.312293E-1,1.1023996E0,1.0343103E0,-1.000718E0,-5.6034774E-1,1.5759042E-1,8.7355626E-1,-1.5718688E-1,9.349884E-1,1.1467807E0,-7.6483697E-1,8.252256E-1,9.0035146E-1,1.1607165E0,4.961715E-2,-1.2180862E0,1.0704644E0,-3.7061134E-1,8.1464916E-1,-1.2073722E0,1.1571857E0,-1.6636863E-2,1.1823988E0,6.018238E-1,-2.8670552E-1,-1.0668018E0,-4.3590266E-1,-9.732082E-1,3.6782366E-1,-9.591285E-1,2.536677E-1,9.980713E-1,-5.3855E-1,8.142663E-1,9.9003786E-1,-1.0550315E0,6.865181E-1,-1.2571143E0,9.476908E-1,5.237977E-1,-3.6743024E-1,1.2066844E0,-8.703038E-1,6.3823473E-1,-9.5821106E-1,1.0529027E0,-6.3151646E-1,9.597764E-1,-7.0734286E-1,1.0115792E0,-1.0770543E0,2.1526365E-1,-5.112177E-1,1.2400962E0,-1.0708277E0,-4.960755E-1,1.7005503E-2,1.270007E0,-1.1678845E0,2.5039786E-1,-3.2572812E-1,7.58656E-1,1.2310816E0,3.0431694E-1,7.0414203E-1,-1.051548E0,9.279888E-1,1.9738664E-1,1.0039846E0,2.584966E-1,-1.7828523E-1,-1.4606737E0],"categories":[],"categories_nodes":[],"categories_segments":[],"categories_sizes":[],"default_left":[true,true,true,true,true,true,true,false,true,true,true,true,true,true,true,true,true,true,true,true,true,true,true,true,true,true,true,true,false,true,false,true,false,false,false,true,true,false,false,false,true,false,true,true,true,true,true,true,true,true,true,true,true,true,true,false,false,false,false,false,false,false,false,false,false,false,false,false,false,false,false,false,false,false,false,false,false,false,false,false,false,false,false,false,false,false,false,false,false,false,false],"id":4,"left_children":[1,3,5,7,9,11,13,-1,15,17,19,21,23,25,27,29,31,33,35,37,39,41,43,45,47,49,51,53,-1,55,-1,57,-1,-1,-1,59,61,-1,-1,-1,63,-1,65,67,69,71,73,75,77,79,81,83,85,87,89,-1,-1,-1,-1,-1,-1,-1,-1,-1,-1,-1,-1,-1,-1,-1,-1,-1,-1,-1,-1,-1,-1,-1,-1,-1,-1,-1,-1,-1,-1,-1,-1,-1,-1,-1,-1],"loss_changes":[6.896732E2,1.4426147E1,4.4586932E2,1.7253418E0,3.292013E1,1.2248645E2,8.525681E0,0E0,1.0784821E1,1.7275652E1,1.0460342E1,7.973901E1,6.1253265E1,8.831408E0,4.1760254E-1,4.3719597E0,1.5108185E0,1.641429E0,2.16169E1,7.049836E0,4.42498E0,5.6168556E-1,4.494275E1,3.7827286E1,3.3679935E1,1.1816788E0,6.2036176E0,1.3369629E1,0E0,4.9387064E0,0E0,1.7169418E0,0E0,0E0,0E0,4.1133957E0,1.2452129E1,0E0,0E0,0E0,5.3793917E0,0E0,3.7439597E0,4.5826168E1,1.176416E1,7.3073875E1,7.46257E0,3.801819E1,6.0411835E0,1.5492023E0,2.07269E0,8.247892E0,1.525011E-1,8.627014E-1,9.8882055E-1,0E0,0E0,0E0,0E0,0E0,0E0,0E0,0E0,0E0,0E0,0E0,0E0,0E0,0E0,0E0,0E0,0E0,0E0,0E0,0E0,0E0,0E0,0E0,0E0,0E0,0E0,0E0,0E0,0E0,0E0,0E0,0E0,0E0,0E0,0E0,0E0],"parents":[2147483647,0,0,1,1,2,2,3,3,4,4,5,5,6,6,8,8,9,9,10,10,11,11,12,12,13,13,14,14,15,15,16,16,17,17,18,18,19,19,20,20,21,21,22,22,23,23,24,24,25,25,26,26,27,27,29,29,31,31,35,35,36,36,40,40,42,42,43,43,44,44,45,45,46,46,47,47,48,48,49,49,50,50,51,51,52,52,53,53,54,54],"right_children":[2,4,6,8,10,12,14,-1,16,18,20,22,24,26,28,30,32,34,36,38,40,42,44,46,48,50,52,54,-1,56,-1,58,-1,-1,-1,60,62,-1,-1,-1,64,-1,66,68,70,72,74,76,78,80,82,84,86,88,90,-1,-1,-1,-1,-1,-1,-1,-1,-1,-1,-1,-1,-1,-1,-1,-1,-1,-1,-1,-1,-1,-1,-1,-1,-1,-1,-1,-1,-1,-1,-1,-1,-1,-1,-1,-1],"split_conditions":[-1.338896E1,-3.0532274E1,2.5067013E1,-1.4847087E2,-8.122478E0,8.879078E0,4.0254955E1,3.4557432E-1,-8.8259995E1,-3.0997917E1,-2.657191E1,3.3502202E0,8.460968E0,1.641402E1,2.2008557E2,-1.1165979E2,7.479491E0,-2.8269749E1,-1.2216646E1,-4.0560673E1,2.471262E0,-1.2966267E1,-5.1460295E0,6.269963E0,1.3951347E1,1.9120077E1,1.245725E1,1.4243387E2,3.4403422E-1,-1.2539098E2,2.4756768E-1,3.473005E1,3.4821498E-1,1.4885145E-2,-3.6542588E-1,4.9488754E0,8.178156E0,2.4439476E-1,-3.6221167E-1,3.4715572E-1,-8.050931E0,3.5471964E-1,-1.1419365E1,8.043194E0,1.7098934E1,1.6622513E1,9.429552E0,1.1311958E1,1.9410122E1,1.0962774E1,2.2186852E1,3.873816E0,3.8358406E1,2.1491806E2,8.683327E0,2.0595543E-1,-3.771343E-1,2.8430724E-1,1.5713932E-1,-1.10229075E-1,3.6200532E-1,-2.6109114E-1,1.9147043E-1,-2.8746334E-1,3.1587082E-1,-1.8945494E-1,2.8793293E-1,-2.1220286E-1,3.0347377E-1,-3.231163E-1,6.45791E-2,-1.5336531E-1,3.720289E-1,-3.2124832E-1,-1.4882267E-1,5.101651E-3,3.8100213E-1,-3.5036534E-1,7.511936E-2,-9.771844E-2,2.2759682E-1,3.693245E-1,9.1295086E-2,2.1124262E-1,-3.154644E-1,2.7839667E-1,5.9215993E-2,3.0119538E-1,7.754899E-2,-5.348557E-2,-4.382021E-1],"split_indices":[10,12,2,5,15,0,2,0,13,11,13,0,15,4,11,12,0,10,15,1,11,0,10,10,4,5,0,13,0,7,0,15,0,0,0,0,0,0,0,0,4,0,0,0,15,5,13,3,15,0,13,0,3,2,0,0,0,0,0,0,0,0,0,0,0,0,0,0,0,0,0,0,0,0,0,0,0,0,0,0,0,0,0,0,0,0,0,0,0,0,0],"split_type":[0,0,0,0,0,0,0,0,0,0,0,0,0,0,0,0,0,0,0,0,0,0,0,0,0,0,0,0,0,0,0,0,0,0,0,0,0,0,0,0,0,0,0,0,0,0,0,0,0,0,0,0,0,0,0,0,0,0,0,0,0,0,0,0,0,0,0,0,0,0,0,0,0,0,0,0,0,0,0,0,0,0,0,0,0,0,0,0,0,0,0],"sum_hessian":[2.4406907E3,3.9299167E2,2.047699E3,2.6601193E2,1.26979744E2,1.8613099E3,1.8638907E2,8.601231E1,1.7999963E2,5.107484E1,7.59049E1,9.768494E2,8.844605E2,3.2151035E1,1.5423802E2,6.2557716E0,1.7374385E2,1.0738577E1,4.0336266E1,5.0423646E0,7.086253E1,1.888066E1,9.5796875E2,7.435048E2,1.4095572E2,1.7589735E1,1.4561299E1,1.1150722E2,4.2730812E1,4.7044787E0,1.5512929E0,1.2316497E2,5.0578888E1,1.0447057E0,9.693871E0,1.7737038E1,2.2599228E1,2.215271E0,2.8270934E0,6.7522644E1,3.3398886E0,1.2773058E1,6.1076016E0,8.160402E1,8.7636475E2,5.7288165E2,1.7062312E2,1.1918803E2,2.1767687E1,3.4502378E0,1.4139497E1,1.0776425E1,3.784874E0,1.0899462E2,2.5125937E0,1.0915992E0,3.6128795E0,1.0806287E2,1.5102106E1,1.3880367E0,1.6349E1,1.52052355E1,7.3939915E0,1.8315579E0,1.5083306E0,1.2019584E0,4.9056435E0,6.197849E1,1.962553E1,8.6957086E2,6.7938805E0,5.4891003E2,2.3971622E1,1.4061044E2,3.0012674E1,8.655109E1,3.263694E1,1.8593077E1,3.1746106E0,1.7720563E0,1.6781814E0,1.0004708E1,4.1347885E0,3.0399106E0,7.7365146E0,2.7699106E0,1.0149633E0,1.0659008E2,2.4045446E0,1.2501215E0,1.2624724E0],"tree_param":{"num_deleted":"0","num_feature":"16","num_nodes":"91","size_leaf_vector":"0"}},{"base_weights":[-2.8687942E-1,6.291653E-1,-5.31708E-1,8.500717E-1,2.1287656E-1,-6.815303E-1,7.2491723E-1,8.6525774E-1,-1.0048273E0,-3.753257E-1,1.0847818E0,-9.448272E-1,-4.2885664E-1,1.7650488E-1,8.9098626E-1,1.1004071E0,7.88369E-1,2.2918649E-1,-7.861246E-1,-2.2602917E-1,1.5165032E0,8.39698E-1,-9.778993E-1,-7.44358E-1,-2.1246031E-1,-1.4286767E-1,9.094773E-1,8.1463754E-1,1.0901242E0,-1.24381386E-1,8.2294935E-1,-3.234708E-1,1.0703037E0,-2.3559546E-1,-1.0337148E0,7.898738E-1,-1.0554129E0,1.89988E0,1.028955E0,1.0665927E0,2.7586967E-1,-6.640655E-1,-1.0473981E0,-9.0304536E-1,-1.0558904E-1,2.7169344E-1,-5.1019675E-1,8.853214E-1,-4.4197705E-1,-5.0630075E-1,1.0813936E0,8.687003E-1,-8.495227E-1,8.00721E-1,-4.8225883E-1,7.486449E-1,1.0323464E0,1.0565828E0,-8.2301795E-1,-6.6581696E-1,1.4761546E0,-8.8278157E-1,7.1035135E-1,-1.0830982E0,3.2123712E-1,1.4301975E0,-8.10434E-1,-2.0002554E-1,-1.1380488E0,9.3861175E-1,2.1340158E0,4.380755E-1,1.3884757E0,-8.1954753E-1,9.234975E-1,-7.1912175E-1,2.7111306E0,-6.9395477E-1,-1.0790216E0,-9.3902165E-1,9.823963E-1,1.4497923E0,-1.0173175E0,-7.9295345E-2,9.201403E-1,-6.784944E-1,2.2061567E-1,-6.235815E-1,2.40494E0,8.978021E-1,-6.635588E-1,1.2624478E0,3.680896E-1,8.976436E-1,5.073616E-1,-1.7832325E0,6.967882E-1],"categories":[],"categories_nodes":[],"categories_segments":[],"categories_sizes":[],"default_left":[true,true,true,true,true,true,true,true,false,true,true,true,true,true,true,false,true,true,true,true,true,true,true,true,true,true,true,true,false,true,true,true,true,true,true,true,true,true,true,false,true,true,true,true,true,true,true,true,true,false,true,true,true,false,false,false,false,false,false,false,false,false,false,false,false,false,false,false,false,false,false,false,false,false,false,false,false,false,false,false,false,false,false,false,false,false,false,false,false,false,false,false,false,false,false,false,false],"id":5,"left_children":[1,3,5,7,9,11,13,15,-1,17,19,21,23,25,27,-1,29,31,33,35,37,39,41,43,45,47,49,51,-1,53,55,57,59,61,63,65,67,69,71,-1,73,75,77,79,81,83,85,87,89,-1,91,93,95,-1,-1,-1,-1,-1,-1,-1,-1,-1,-1,-1,-1,-1,-1,-1,-1,-1,-1,-1,-1,-1,-1,-1,-1,-1,-1,-1,-1,-1,-1,-1,-1,-1,-1,-1,-1,-1,-1,-1,-1,-1,-1,-1,-1],"loss_changes":[4.6427292E2,3.9981262E1,3.0791956E2,8.8971405E0,7.874223E1,9.669025E1,1.5728729E1,4.2530365E0,0E0,2.301524E1,3.5309624E1,4.2952698E1,5.0813858E1,9.912629E0,1.1437836E0,0E0,6.9500732E0,1.800073E1,7.2497864E0,1.4465546E1,6.757271E0,1.4363108E0,1.4601624E1,3.0652664E1,6.4176834E1,9.608787E0,3.6674728E0,9.785194E0,0E0,3.2956622E0,2.4815521E0,1.7199821E1,1.1757301E1,1.1860533E1,2.8655128E0,9.196665E0,4.3222332E-1,3.603691E0,4.213785E0,0E0,4.467488E0,2.6086155E1,5.649658E0,1.739502E1,8.8679756E1,3.872299E1,3.402581E1,1.7750206E1,7.686334E0,0E0,1.052701E0,5.6832886E-1,6.540738E0,0E0,0E0,0E0,0E0,0E0,0E0,0E0,0E0,0E0,0E0,0E0,0E0,0E0,0E0,0E0,0E0,0E0,0E0,0E0,0E0,0E0,0E0,0E0,0E0,0E0,0E0,0E0,0E0,0E0,0E0,0E0,0E0,0E0,0E0,0E0,0E0,0E0,0E0,0E0,0E0,0E0,0E0,0E0,0E0],"parents":[2147483647,0,0,1,1,2,2,3,3,4,4,5,5,6,6,7,7,9,9,10,10,11,11,12,12,13,13,14,14,16,16,17,17,18,18,19,19,20,20,21,21,22,22,23,23,24,24,25,25,26,26,27,27,29,29,30,30,31,31,32,32,33,33,34,34,35,35,36,36,37,37,38,38,40,40,41,41,42,42,43,43,44,44,45,45,46,46,47,47,48,48,50,50,51,51,52,52],"right_children":[2,4,6,8,10,12,14,16,-1,18,20,22,24,26,28,-1,30,32,34,36,38,40,42,44,46,48,50,52,-1,54,56,58,60,62,64,66,68,70,72,-1,74,76,78,80,82,84,86,88,90,-1,92,94,96,-1,-1,-1,-1,-1,-1,-1,-1,-1,-1,-1,-1,-1,-1,-1,-1,-1,-1,-1,-1,-1,-1,-1,-1,-1,-1,-1,-1,-1,-1,-1,-1,-1,-1,-1,-1,-1,-1,-1,-1,-1,-1,-1,-1],"split_conditions":[-7.0156507E0,-1.8495165E1,1.8148888E1,-2.9672608E-1,-6.5283437E0,8.8104925E0,3.3840706E1,-1.4847087E2,-3.014482E-1,-1.1162182E1,7.8146005E0,2.9226744E0,4.4739562E-1,1.2109793E1,2.2008557E2,3.3012214E-1,-8.5223526E1,-1.0446411E1,-1.22369E1,2.6857953E0,6.3422337E0,-1.306241E1,-1.4685094E-5,1.148382E1,4.1171064E0,1.0694479E1,1.4557047E1,1.7348572E2,3.2703727E-1,-1.2539098E2,-2.0763756E1,-1.974604E1,-1.4519951E1,-1.09187975E1,-7.1210957E0,-7.6290846E0,-6.661949E0,-5.601615E0,-1.2978222E0,3.1997782E-1,-1.1623636E1,9.181183E0,-1.5727087E0,1.1786374E1,1.0021548E0,4.7257457E0,1.2120415E1,9.441144E0,3.873816E0,-1.5189023E-1,2.5674526E1,1.2068282E2,1.15248215E2,2.402163E-1,-1.4467765E-1,2.2459348E-1,3.0970392E-1,3.1697485E-1,-2.469054E-1,-1.997451E-1,4.428464E-1,-2.648345E-1,2.1310541E-1,-3.2492948E-1,9.637114E-2,4.2905927E-1,-2.431302E-1,-6.0007665E-2,-3.4141463E-1,2.8158355E-1,6.402048E-1,1.3142265E-1,4.165427E-1,-2.4586427E-1,2.7704927E-1,-2.1573654E-1,8.1333923E-1,-2.0818643E-1,-3.2370648E-1,-2.817065E-1,2.947189E-1,4.349377E-1,-3.0519527E-1,-2.3788605E-2,2.760421E-1,-2.0354833E-1,6.618471E-2,-1.8707447E-1,7.21482E-1,2.6934063E-1,-1.9906764E-1,3.7873438E-1,1.1042688E-1,2.692931E-1,1.5220848E-1,-5.3496975E-1,2.0903647E-1],"split_indices":[10,10,12,11,14,0,2,5,0,4,0,0,15,0,11,0,13,3,10,11,15,0,2,1,10,5,6,9,0,7,13,5,15,5,10,9,7,7,14,0,0,1,9,12,9,6,0,6,0,0,5,13,15,0,0,0,0,0,0,0,0,0,0,0,0,0,0,0,0,0,0,0,0,0,0,0,0,0,0,0,0,0,0,0,0,0,0,0,0,0,0,0,0,0,0,0,0],"split_type":[0,0,0,0,0,0,0,0,0,0,0,0,0,0,0,0,0,0,0,0,0,0,0,0,0,0,0,0,0,0,0,0,0,0,0,0,0,0,0,0,0,0,0,0,0,0,0,0,0,0,0,0,0,0,0,0,0,0,0,0,0,0,0,0,0,0,0,0,0,0,0,0,0,0,0,0,0,0,0,0,0,0,0,0,0,0,0,0,0,0,0,0,0,0,0,0,0],"sum_hessian":[2.067624E3,4.3573157E2,1.6318925E3,2.839889E2,1.5174268E2,1.4584635E3,1.7342899E2,2.8221194E2,1.7769315E0,9.0953445E1,6.078923E1,7.128762E2,7.455872E2,4.079009E1,1.326389E2,6.62592E1,2.1595274E2,3.6978996E1,5.397445E1,1.5178892E1,4.561034E1,1.2527365E1,7.003489E2,3.0234082E2,4.4324643E2,2.8971596E1,1.1818492E1,9.955915E1,3.3079758E1,7.788107E0,2.0816464E2,2.268754E1,1.4291454E1,1.7349201E1,3.6625248E1,6.843726E0,8.335166E0,2.3911255E1,2.1699085E1,8.296861E0,4.2305036E0,1.2888795E2,5.714609E2,2.4184604E2,6.049478E1,1.6881738E2,2.7442905E2,6.08715E0,2.2884447E1,1.0691024E0,1.074939E1,9.6889534E1,2.66961E0,1.8272651E0,5.9608417E0,1.5702101E2,5.1143627E1,5.7333775E0,1.6954163E1,2.5865111E0,1.1704944E1,1.0340999E1,7.0082016E0,3.5530907E1,1.094342E0,4.9638586E0,1.8798672E0,1.0356297E0,7.299536E0,5.6643844E0,1.824687E1,9.047628E0,1.2651457E1,1.4732103E0,2.7572932E0,1.2759359E2,1.29437E0,4.8815346E1,5.2264557E2,2.3781032E2,4.0357156E0,2.2137949E1,3.835683E1,1.1010039E2,5.871699E1,2.2311893E2,5.1310123E1,3.3502102E0,2.73694E0,2.814567E0,2.006988E1,7.95927E0,2.7901192E0,8.833007E1,8.559465E0,1.568989E0,1.1006209E0],"tree_param":{"num_deleted":"0","num_feature":"16","num_nodes":"97","size_leaf_vector":"0"}},{"base_weights":[-2.458224E-1,5.049643E-1,-4.641277E-1,8.207707E-1,2.0031022E-1,-6.0003525E-1,6.3887364E-1,8.419363E-1,-2.2894783E-1,-1.8026455E-1,8.144982E-1,-9.8629886E-1,-4.2070472E-1,2.325548E-1,8.380845E-1,1.063094E0,7.5539917E-1,-1.1932931E0,4.5867324E-1,8.93838E-2,-9.246639E-1,-1.683656E-1,1.1713755E0,7.547578E-1,-1.0355679E0,-7.185658E-1,-2.8366643E-1,-3.1544313E-1,8.014831E-1,7.5388414E-1,1.0474758E0,7.864433E-2,8.162776E-1,6.7226017E-1,-2.4305835E-2,-1.6209948E-1,9.594059E-1,-4.0147722E-1,-1.1089636E0,4.6778142E-1,-9.642652E-1,1.3018359E0,3.7723872E-1,9.729763E-1,3.22316E-1,-1.0412391E0,5.232995E-1,-8.8582796E-1,-1.193448E-1,6.569489E-1,-4.039951E-1,8.1372815E-1,-6.0502577E-1,1.1670026E0,1.0108421E-1,8.255812E-1,-5.297884E-1,-1.747612E-1,8.3452433E-1,6.887841E-1,1.0776367E0,-3.0578595E-1,1.0970926E0,1.109618E0,-6.5524477E-1,-9.618304E-1,5.6641227E-1,-1.1474618E0,-1.370352E-1,1.0337144E0,-9.242529E-1,-1.0562345E0,-8.432006E-2,5.4938483E-1,1.4894867E0,-1.1823436E0,1.6756593E0,-5.4542273E-1,7.1714264E-1,-6.262935E-1,-1.0604211E0,-9.14402E-1,6.5019447E-1,7.053662E-1,-8.8833106E-1,-1.0172179E0,9.6467584E-1,-1.9046961E-1,-6.043162E-1,9.365011E-1,1.14769556E-1,-2.3145327E-1,-1.1098224E0,1.274324E0,3.2439208E-1,-9.310076E-1,5.619389E-1,8.4330356E-1,2.5476336E-1,3.010891E-1,-1.0307617E0],"categories":[],"categories_nodes":[],"categories_segments":[],"categories_sizes":[],"default_left":[true,true,true,true,true,true,true,true,true,true,true,true,true,true,true,false,true,false,true,true,true,true,true,true,true,true,true,true,true,true,false,true,true,false,false,true,true,true,true,true,true,true,true,false,true,true,false,true,true,true,true,true,true,true,true,true,true,false,false,false,false,false,false,false,false,false,false,false,false,false,false,false,false,false,false,false,false,false,false,false,false,false,false,false,false,false,false,false,false,false,false,false,false,false,false,false,false,false,false,false,false],"id":6,"left_children":[1,3,5,7,9,11,13,15,17,19,21,23,25,27,29,-1,31,-1,33,35,37,39,41,43,45,47,49,51,53,55,-1,57,59,-1,-1,61,63,65,67,69,71,73,75,-1,77,79,-1,81,83,85,87,89,91,93,95,97,99,-1,-1,-1,-1,-1,-1,-1,-1,-1,-1,-1,-1,-1,-1,-1,-1,-1,-1,-1,-1,-1,-1,-1,-1,-1,-1,-1,-1,-1,-1,-1,-1,-1,-1,-1,-1,-1,-1,-1,-1,-1,-1,-1,-1],"loss_changes":[2.9039212E2,3.825067E1,2.0606204E2,4.5414124E0,4.795912E1,8.423523E1,1.202729E1,2.8728943E0,3.6338673E0,2.5597345E1,2.7710068E1,3.395511E1,3.393361E1,1.6171898E1,9.899292E-1,0E0,5.765915E0,0E0,3.7115628E-1,2.0771172E1,2.8224468E0,1.1472564E1,5.4836044E0,7.452822E-1,3.8734741E0,2.6241623E1,6.5283195E1,9.231428E0,6.3677883E0,7.3912964E0,0E0,2.5948496E0,3.580307E0,0E0,0E0,1.3715215E1,5.886591E0,6.1828938E0,7.592373E-1,1.1016929E1,7.19944E-1,6.11792E0,2.1309963E1,0E0,2.1927962E0,2.324463E0,0E0,9.607697E0,3.7739933E1,3.4742867E1,2.1695854E1,3.9722967E-1,3.8625255E0,1.0834007E0,5.176046E0,5.13031E-1,2.2275722E0,0E0,0E0,0E0,0E0,0E0,0E0,0E0,0E0,0E0,0E0,0E0,0E0,0E0,0E0,0E0,0E0,0E0,0E0,0E0,0E0,0E0,0E0,0E0,0E0,0E0,0E0,0E0,0E0,0E0,0E0,0E0,0E0,0E0,0E0,0E0,0E0,0E0,0E0,0E0,0E0,0E0,0E0,0E0,0E0],"parents":[2147483647,0,0,1,1,2,2,3,3,4,4,5,5,6,6,7,7,8,8,9,9,10,10,11,11,12,12,13,13,14,14,16,16,18,18,19,19,20,20,21,21,22,22,23,23,24,24,25,25,26,26,27,27,28,28,29,29,31,31,32,32,35,35,36,36,37,37,38,38,39,39,40,40,41,41,42,42,44,44,45,45,47,47,48,48,49,49,50,50,51,51,52,52,53,53,54,54,55,55,56,56],"right_children":[2,4,6,8,10,12,14,16,18,20,22,24,26,28,30,-1,32,-1,34,36,38,40,42,44,46,48,50,52,54,56,-1,58,60,-1,-1,62,64,66,68,70,72,74,76,-1,78,80,-1,82,84,86,88,90,92,94,96,98,100,-1,-1,-1,-1,-1,-1,-1,-1,-1,-1,-1,-1,-1,-1,-1,-1,-1,-1,-1,-1,-1,-1,-1,-1,-1,-1,-1,-1,-1,-1,-1,-1,-1,-1,-1,-1,-1,-1,-1,-1,-1,-1,-1,-1],"split_conditions":[-5.8846126E0,-2.8400576E1,1.8386456E1,-1.7712967E1,-6.5283437E0,7.904731E0,4.0254955E1,-1.4847087E2,-3.1431572E1,-6.913417E0,7.8146005E0,3.3502202E0,-9.4996274E-1,1.062429E1,2.2008557E2,3.189282E-1,-8.0175674E1,-3.5798794E-1,-1.9036089E1,-6.592167E0,-1.1502148E1,-7.5230026E0,-7.513534E-1,-1.2966267E1,1.6857517E1,1.148382E1,-2.8962007E-1,3.5545511E0,2.0985352E1,1.3994987E2,3.1424275E-1,2.5791001E0,7.9458256E0,2.0167805E-1,-7.291751E-3,-7.4555235E0,-8.79314E0,-1.3721594E1,-9.9829715E-1,4.345453E0,-6.119835E0,-6.304247E0,9.913281E0,2.9189292E-1,-1.1623636E1,-3.5975266E0,1.5698986E-1,1.1620979E1,1.2651904E0,-6.629261E0,4.34865E0,3.3632183E1,1.5677556E1,2.9089869E1,1.4172894E1,1.3097394E2,1.7348572E2,-5.2428365E-2,2.503573E-1,2.0663525E-1,3.2329103E-1,-9.173579E-2,3.291278E-1,3.3288538E-1,-1.9657344E-1,-2.8854913E-1,1.699237E-1,-3.4423855E-1,-4.1110564E-2,3.1011432E-1,-2.772759E-1,-3.1687036E-1,-2.529602E-2,1.6481546E-1,4.4684604E-1,-3.547031E-1,5.026978E-1,-1.6362682E-1,2.151428E-1,-1.8788806E-1,-3.1812635E-1,-2.743206E-1,1.9505835E-1,2.1160987E-1,-2.6649934E-1,-3.0516538E-1,2.8940275E-1,-5.7140883E-2,-1.8129486E-1,2.8095034E-1,3.443087E-2,-6.9435984E-2,-3.3294672E-1,3.8229725E-1,9.731763E-2,-2.793023E-1,1.6858166E-1,2.5299108E-1,7.642901E-2,9.0326734E-2,-3.0922854E-1],"split_indices":[10,10,2,11,14,0,2,5,10,4,0,0,15,0,11,0,13,0,7,15,10,9,2,0,15,1,10,0,13,13,0,0,0,0,0,10,10,13,2,11,10,5,0,0,0,2,0,12,9,1,4,3,4,5,15,13,9,0,0,0,0,0,0,0,0,0,0,0,0,0,0,0,0,0,0,0,0,0,0,0,0,0,0,0,0,0,0,0,0,0,0,0,0,0,0,0,0,0,0,0,0],"split_type":[0,0,0,0,0,0,0,0,0,0,0,0,0,0,0,0,0,0,0,0,0,0,0,0,0,0,0,0,0,0,0,0,0,0,0,0,0,0,0,0,0,0,0,0,0,0,0,0,0,0,0,0,0,0,0,0,0,0,0,0,0,0,0,0,0,0,0,0,0,0,0,0,0,0,0,0,0,0,0,0,0,0,0,0,0,0,0,0,0,0,0,0,0,0,0,0,0,0,0,0,0],"sum_hessian":[1.7693262E3,3.9827655E2,1.3710496E3,1.947271E2,2.0354944E2,1.2210522E3,1.4999731E2,1.9107242E2,3.6546774E0,1.2611203E2,7.7437416E1,3.8572705E2,8.353252E2,5.0060074E1,9.993724E1,5.0564045E1,1.4050838E2,1.2151345E0,2.439543E0,9.322315E1,3.288887E1,2.0768318E1,5.6669098E1,1.022098E1,3.7550607E2,2.6187665E2,5.7344855E2,2.5726028E1,2.4334044E1,7.455683E1,2.5380411E1,1.1785598E1,1.2872278E2,1.4197751E0,1.0197678E0,7.295028E1,2.0272879E1,9.395497E0,2.3493374E1,1.1771693E1,8.996624E0,4.8124004E1,8.5450945E0,5.9623194E0,4.25866E0,3.7447577E2,1.0303143E0,2.0435594E2,5.7520714E1,6.4532776E1,5.0891577E2,4.881513E0,2.0844515E1,1.5551784E1,8.782259E0,7.095087E1,3.6059642E0,9.402311E0,2.383287E0,8.896176E1,3.9761017E1,6.615813E1,6.79215E0,1.883356E1,1.4393167E0,5.9544616E0,3.441036E0,2.2424534E1,1.0688412E0,8.5521965E0,3.2194967E0,7.9639173E0,1.0327066E0,1.0389881E1,3.7734123E1,3.9227402E0,4.622354E0,1.2124808E0,3.0461793E0,1.803306E1,3.564427E2,2.0102112E2,3.3348246E0,2.7794651E1,2.9726065E1,9.661961E0,5.4870815E1,2.4728331E2,2.6163248E2,3.8631022E0,1.018411E0,1.2817493E1,8.027022E0,1.3340305E1,2.2114785E0,2.396062E0,6.386197E0,6.835137E1,2.5994918E0,1.5064572E0,2.099507E0],"tree_param":{"num_deleted":"0","num_feature":"16","num_nodes":"101","size_leaf_vector":"0"}},{"base_weights":[-2.0781212E-1,6.316832E-1,-3.52252E-1,7.8439593E-1,3.5401964E-1,-4.8713028E-1,3.6564085E-1,8.382232E-1,3.1710172E-1,-6.034432E-1,5.8856165E-1,-9.1394913E-1,-3.184147E-1,1.2968723E-1,8.011507E-1,8.7255114E-1,1.6186988E-1,-1.084368E-1,9.304958E-1,7.149322E-1,-8.274049E-1,1.6501674E-1,9.638427E-1,-3.0214468E-1,-1.0289438E0,1.5259282E-1,-4.2898193E-1,-7.810382E-2,7.548466E-1,-8.6104333E-1,8.986352E-1,7.430623E-1,1.0603064E0,-1.6054057E0,9.24726E-1,3.0508232E-1,-1.3153143E0,2.3593394E-1,-1.0395745E0,-3.1235367E-1,8.4485424E-1,-6.1355793E-1,1.0308518E0,-4.0858123E-1,1.1003098E0,5.7785773E-1,-1.0379117E0,-8.33142E-1,6.345169E-1,-4.918354E-1,3.7920237E-1,8.0148906E-1,-3.6062503E-1,9.855035E-1,6.2940973E-1,1.6163273E0,6.701706E-1,1.0359447E0,4.712291E-1,-2.5342953E-1,8.7057734E-1,6.2087756E-1,-3.0872938E-1,-1.2619925E0,4.5276735E-2,3.4870392E-1,-1.2000588E0,1.0166802E0,-4.8978978E-1,1.0787657E0,-1.012082E-1,4.0508687E-1,-6.6456217E-1,-4.0722942E-1,2.6021206E0,-7.2847575E-2,-1.0414326E0,-9.690133E-1,9.984895E-1,2.5540185E-1,1.5714265E0,-3.744855E-1,-8.5547286E-1,-9.5466185E-1,6.168485E-1,1.1139112E0,-4.6968967E-1,-7.8712255E-1,3.3435352E-2,-4.432805E-2,8.1026906E-1,2.8695637E-1,1.69088E0,-1.0626837E0,8.109907E-1],"categories":[],"categories_nodes":[],"categories_segments":[],"categories_sizes":[],"default_left":[true,true,true,true,true,true,true,true,true,true,true,true,true,true,true,true,true,true,false,false,true,true,true,true,true,true,true,true,true,false,true,true,false,false,false,true,false,true,true,true,true,false,true,true,true,false,true,true,true,true,true,true,true,false,true,true,true,false,false,false,false,false,false,false,false,false,false,false,false,false,false,false,false,false,false,false,false,false,false,false,false,false,false,false,false,false,false,false,false,false,false,false,false,false,false],"id":7,"left_children":[1,3,5,7,9,11,13,15,17,19,21,23,25,27,29,31,33,35,-1,-1,37,39,41,43,45,47,49,51,53,-1,55,57,-1,-1,-1,59,-1,61,63,65,67,-1,69,71,73,-1,75,77,79,81,83,85,87,-1,89,91,93,-1,-1,-1,-1,-1,-1,-1,-1,-1,-1,-1,-1,-1,-1,-1,-1,-1,-1,-1,-1,-1,-1,-1,-1,-1,-1,-1,-1,-1,-1,-1,-1,-1,-1,-1,-1,-1,-1],"loss_changes":[1.8626077E2,9.287666E0,1.2699095E2,3.3742676E0,1.8739773E1,7.913382E1,2.1240881E1,2.8575668E0,4.422495E0,5.493608E0,1.0373716E1,2.163498E1,4.1312317E1,1.771484E1,1.2569851E1,2.1950607E0,1.15507765E1,5.726648E0,0E0,0E0,3.5515518E0,1.0758493E1,4.324375E0,8.028138E0,4.377411E0,7.241037E1,3.278337E1,2.586414E1,3.6343193E-1,0E0,1.0272266E1,5.5590706E0,0E0,0E0,0E0,2.9871182E0,0E0,8.7367064E-1,3.049676E0,1.1995154E1,3.619029E0,0E0,1.9467583E0,1.0249735E1,9.780924E0,0E0,8.1121826E-1,1.3440285E1,3.589831E1,2.5105682E1,1.5446007E1,1.0582975E1,1.3233954E1,0E0,3.0567179E0,1.1019402E0,1.40975685E1,0E0,0E0,0E0,0E0,0E0,0E0,0E0,0E0,0E0,0E0,0E0,0E0,0E0,0E0,0E0,0E0,0E0,0E0,0E0,0E0,0E0,0E0,0E0,0E0,0E0,0E0,0E0,0E0,0E0,0E0,0E0,0E0,0E0,0E0,0E0,0E0,0E0,0E0],"parents":[2147483647,0,0,1,1,2,2,3,3,4,4,5,5,6,6,7,7,8,8,9,9,10,10,11,11,12,12,13,13,14,14,15,15,16,16,17,17,20,20,21,21,22,22,23,23,24,24,25,25,26,26,27,27,28,28,30,30,31,31,35,35,37,37,38,38,39,39,40,40,42,42,43,43,44,44,46,46,47,47,48,48,49,49,50,50,51,51,52,52,54,54,55,55,56,56],"right_children":[2,4,6,8,10,12,14,16,18,20,22,24,26,28,30,32,34,36,-1,-1,38,40,42,44,46,48,50,52,54,-1,56,58,-1,-1,-1,60,-1,62,64,66,68,-1,70,72,74,-1,76,78,80,82,84,86,88,-1,90,92,94,-1,-1,-1,-1,-1,-1,-1,-1,-1,-1,-1,-1,-1,-1,-1,-1,-1,-1,-1,-1,-1,-1,-1,-1,-1,-1,-1,-1,-1,-1,-1,-1,-1,-1,-1,-1,-1,-1],"split_conditions":[-1.338896E1,-3.0532274E1,1.0230893E1,3.0123951E1,-2.4974125E1,7.81956E0,1.2098381E1,-2.4517843E1,-3.4128727E1,-3.841925E1,8.08413E0,-3.6921554E0,-2.3865E0,3.7241394E1,1.9657228E0,4.3188744E0,-2.3459063E1,-6.801511E1,2.7914876E-1,2.1447967E-1,-2.5837933E1,-8.042067E0,-4.746671E1,7.5775986E0,3.3810918E0,-5.843832E0,1.4549107E1,3.6347322E0,-1.306241E1,-2.58313E-1,1.8173283E1,-1.7474716E2,3.1809193E-1,-4.816217E-1,2.774178E-1,-3.951669E1,-3.945943E-1,-2.5906673E1,-2.3402422E1,6.396037E0,-5.274362E-1,-1.8406738E-1,2.471262E0,-1.0588245E1,-4.7416296E0,1.7335732E-1,-5.437288E0,-2.3420854E0,-5.237226E-1,6.2044573E0,8.579489E0,2.5051825E1,1.0313946E1,2.9565105E-1,1.2939813E2,3.3846068E-1,1.1231739E1,3.1078342E-1,1.4136873E-1,-7.602886E-2,2.6117322E-1,1.8626328E-1,-9.2618816E-2,-3.7859777E-1,1.3583021E-2,1.0461118E-1,-3.6001766E-1,3.050041E-1,-1.4693694E-1,3.2362974E-1,-3.0362463E-2,1.2152607E-1,-1.9936866E-1,-1.2216883E-1,7.8063625E-1,-2.1854274E-2,-3.124298E-1,-2.9070398E-1,2.9954687E-1,7.662056E-2,4.7142798E-1,-1.1234565E-1,-2.5664186E-1,-2.8639856E-1,1.8505457E-1,3.3417335E-1,-1.409069E-1,-2.3613678E-1,1.0030606E-2,-1.3298416E-2,2.4308072E-1,8.6086914E-2,5.07264E-1,-3.1880513E-1,2.4329722E-1],"split_indices":[10,12,15,15,13,0,0,14,13,10,0,3,10,10,6,0,14,6,0,0,15,15,11,0,0,3,12,2,0,0,6,1,0,0,0,4,0,13,14,0,12,0,11,1,3,0,2,1,15,10,0,15,7,0,11,4,12,0,0,0,0,0,0,0,0,0,0,0,0,0,0,0,0,0,0,0,0,0,0,0,0,0,0,0,0,0,0,0,0,0,0,0,0,0,0],"split_type":[0,0,0,0,0,0,0,0,0,0,0,0,0,0,0,0,0,0,0,0,0,0,0,0,0,0,0,0,0,0,0,0,0,0,0,0,0,0,0,0,0,0,0,0,0,0,0,0,0,0,0,0,0,0,0,0,0,0,0,0,0,0,0,0,0,0,0,0,0,0,0,0,0,0,0,0,0,0,0,0,0,0,0,0,0,0,0,0,0,0,0,0,0,0,0],"sum_hessian":[1.5332524E3,2.2458347E2,1.308669E3,1.437159E2,8.086757E1,1.1019543E3,2.0671461E2,1.281595E2,1.555639E1,1.5602236E1,6.5265335E1,3.109336E2,7.9102075E2,1.3491641E2,7.1798195E1,1.2169297E2,6.466539E0,9.670651E0,5.8857384E0,1.9472611E0,1.3654974E1,3.1337416E1,3.3927917E1,4.9770077E1,2.611635E2,1.5031424E2,6.407065E2,1.0191641E2,3.3000008E1,3.5436335E0,6.825456E1,7.495589E1,4.673708E1,1.6167101E0,4.849829E0,7.7592645E0,1.9113864E0,2.2527533E0,1.1402221E1,1.8727694E1,1.2609723E1,1.0501828E0,3.2877735E1,4.691799E1,2.8520827E0,1.0974208E0,2.600661E2,4.9118244E1,1.0119599E2,5.948368E2,4.586972E1,2.4330296E1,7.758611E1,9.209229E0,2.3790777E1,1.501431E1,5.3240253E1,3.4727905E1,4.022798E1,4.181372E0,3.5778925E0,1.2379186E0,1.0148345E0,9.326749E0,2.0754719E0,1.1082182E1,7.6455107E0,1.138254E1,1.2271825E0,3.1587872E1,1.2898641E0,1.1088689E1,3.5829304E1,1.7870535E0,1.0650291E0,1.0242326E0,2.5904187E2,4.6164684E1,2.9535615E0,7.294985E1,2.8246136E1,4.5124487E2,1.435919E2,6.480229E0,3.9389492E1,1.9629581E1,4.7007136E0,3.6780525E1,4.0805588E1,5.1946297E0,1.8596148E1,1.054805E0,1.3959504E1,3.509379E0,4.9730873E1],"tree_param":{"num_deleted":"0","num_feature":"16","num_nodes":"95","size_leaf_vector":"0"}},{"base_weights":[-1.7231221E-1,5.0898343E-1,-3.0259722E-1,7.0778984E-1,2.543216E-1,-5.4349935E-1,2.055154E-2,1.013914E0,5.9957993E-1,-1.048426E-1,7.26002E-1,-6.380948E-1,5.3285146E-1,-5.8213633E-1,2.2701089E-1,-7.260106E-2,7.067939E-1,-2.753179E-1,1.3887558E0,9.315485E-1,-1.2926167E-1,-2.1168578E-1,-7.7336884E-1,1.1373016E0,4.129095E-1,-8.835448E-1,-1.6861416E-1,1.5601755E0,9.6139885E-2,-3.6896926E-1,8.018594E-1,8.7379676E-1,4.3507144E-1,-7.938283E-1,1.1445823E-2,-4.4685906E-1,1.0557623E0,-8.3677226E-1,9.931294E-1,-4.302951E-1,4.4291988E-1,-9.915745E-1,-6.0087854E-1,1.1349393E-1,1.2695915E0,7.050844E-1,-6.6899345E-3,1.8943858E-1,-1.0789922E0,1.5173913E0,-4.5663407E-1,2.6543012E-1,1.8080566E0,-9.4772166E-1,1.9517301E-1,7.6155716E-1,-6.589588E-1,6.13976E-1,9.98499E-1,2.6252425E-1,9.2813337E-1,6.087803E-1,-9.199164E-1,3.000601E-1,-8.2411414E-1,5.443889E-1,-1.0876926E0,7.736489E-1,-1.3508081E0,-1.6602449E-3,-6.1457413E-1,-6.433962E-1,8.440937E-1,6.760719E-1,-1.0086184E0,7.989658E-1,-6.5175754E-1,9.65137E-1,5.474084E-1,5.5458176E-1,-4.810414E-1,-1.0164303E0,1.2875049E0,-1.1259001E0,-1.7467079E-1,2.783355E0,-6.801183E-1,1.713712E0,-7.47671E-1,-5.5430645E-1,1.0416052E0,5.312931E-1,2.0012755E0,-1.0143698E0,3.8263577E-1,6.934298E-3,6.0954213E-1],"categories":[],"categories_nodes":[],"categories_segments":[],"categories_sizes":[],"default_left":[true,true,true,true,true,true,true,false,true,true,true,true,true,true,true,true,true,true,false,true,true,true,true,true,true,true,true,true,true,true,false,true,true,true,true,true,false,true,false,true,true,true,true,false,false,true,true,true,true,true,true,true,true,true,true,false,false,false,false,false,false,false,false,false,false,false,false,false,false,false,false,false,false,false,false,false,false,false,false,false,false,false,false,false,false,false,false,false,false,false,false,false,false,false,false,false,false],"id":8,"left_children":[1,3,5,7,9,11,13,-1,15,17,19,21,23,25,27,29,31,33,-1,35,37,39,41,43,45,47,49,51,53,55,-1,57,59,61,63,65,-1,67,-1,69,71,73,75,-1,-1,77,79,81,83,85,87,89,91,93,95,-1,-1,-1,-1,-1,-1,-1,-1,-1,-1,-1,-1,-1,-1,-1,-1,-1,-1,-1,-1,-1,-1,-1,-1,-1,-1,-1,-1,-1,-1,-1,-1,-1,-1,-1,-1,-1,-1,-1,-1,-1,-1],"loss_changes":[1.1946066E2,1.0763115E1,8.789781E1,3.3944473E0,1.63941E1,6.619859E1,6.0248993E1,0E0,6.661022E0,1.4528359E1,7.4625607E0,3.4158752E1,3.358282E0,1.5250912E1,6.2761307E1,3.8006008E0,3.2134743E0,7.547671E0,0E0,6.2579536E0,7.9546885E0,2.0894962E1,1.639215E1,9.6275616E-1,5.5984135E0,1.514217E1,2.6588127E1,9.8437805E0,3.423866E1,4.037625E0,0E0,9.439659E-1,2.4904194E0,3.7555418E0,8.357594E0,2.813011E0,0E0,6.0491934E0,0E0,8.60618E0,1.6543032E1,6.301941E0,1.8655266E1,0E0,0E0,5.7497215E-1,5.517006E0,1.6968E1,2.365654E0,2.4181665E1,3.053563E1,4.6118035E0,5.55455E0,2.9341583E0,2.3528332E1,0E0,0E0,0E0,0E0,0E0,0E0,0E0,0E0,0E0,0E0,0E0,0E0,0E0,0E0,0E0,0E0,0E0,0E0,0E0,0E0,0E0,0E0,0E0,0E0,0E0,0E0,0E0,0E0,0E0,0E0,0E0,0E0,0E0,0E0,0E0,0E0,0E0,0E0,0E0,0E0,0E0,0E0],"parents":[2147483647,0,0,1,1,2,2,3,3,4,4,5,5,6,6,8,8,9,9,10,10,11,11,12,12,13,13,14,14,15,15,16,16,17,17,19,19,20,20,21,21,22,22,23,23,24,24,25,25,26,26,27,27,28,28,29,29,31,31,32,32,33,33,34,34,35,35,37,37,39,39,40,40,41,41,42,42,45,45,46,46,47,47,48,48,49,49,50,50,51,51,52,52,53,53,54,54],"right_children":[2,4,6,8,10,12,14,-1,16,18,20,22,24,26,28,30,32,34,-1,36,38,40,42,44,46,48,50,52,54,56,-1,58,60,62,64,66,-1,68,-1,70,72,74,76,-1,-1,78,80,82,84,86,88,90,92,94,96,-1,-1,-1,-1,-1,-1,-1,-1,-1,-1,-1,-1,-1,-1,-1,-1,-1,-1,-1,-1,-1,-1,-1,-1,-1,-1,-1,-1,-1,-1,-1,-1,-1,-1,-1,-1,-1,-1,-1,-1,-1,-1],"split_conditions":[-1.056691E1,-3.0532274E1,9.853975E0,-1.472604E2,-6.8308945E0,1.5110169E1,-5.548926E-1,3.041742E-1,-7.715387E1,-1.0215738E1,2.587326E0,-2.2987002E-1,2.5812707E0,-5.050895E-1,-1.1458309E0,2.6438928E0,3.4250555E0,-2.5107113E1,4.1662675E-1,-2.4495289E1,9.797271E0,1.1592605E0,7.97365E0,3.5553024E0,4.926753E0,-6.6861043E0,-1.0318705E1,-2.4433994E0,3.4744173E-1,-6.465436E0,2.4055782E-1,-6.6350393E0,7.4833264E0,-3.6461586E1,-1.338896E1,-2.1206947E1,3.167287E-1,-7.972439E0,2.9793882E-1,-7.327121E0,7.8358145E0,-1.3045429E1,-2.31631E0,3.404818E-2,3.8087747E-1,-1.306241E1,1.2769604E1,-9.066174E0,8.91559E0,1.1524291E0,-4.096408E0,-3.0184865E0,1.0101305E1,1.5969904E1,1.5206429E1,2.2846715E-1,-1.9768764E-1,1.841928E-1,2.995497E-1,7.875728E-2,2.7844003E-1,1.826341E-1,-2.7597493E-1,9.0018034E-2,-2.4723426E-1,1.6331667E-1,-3.263078E-1,2.3209469E-1,-4.0524247E-1,-4.9807347E-4,-1.8437225E-1,-1.9301887E-1,2.5322813E-1,2.0282157E-1,-3.025855E-1,2.3968975E-1,-1.9552727E-1,2.8954113E-1,1.6422252E-1,1.6637453E-1,-1.4431243E-1,-3.0492908E-1,3.8625148E-1,-3.3777004E-1,-5.2401237E-2,8.3500654E-1,-2.040355E-1,5.141136E-1,-2.2430131E-1,-1.6629194E-1,3.1248158E-1,1.5938793E-1,6.003827E-1,-3.0431098E-1,1.1479074E-1,2.0802896E-3,1.8286264E-1],"split_indices":[10,12,0,6,15,15,12,0,13,8,11,2,12,5,10,0,15,2,0,14,0,15,0,13,0,4,2,7,14,0,0,0,0,10,10,4,0,7,0,15,0,0,5,0,0,0,4,3,15,9,10,3,0,0,6,0,0,0,0,0,0,0,0,0,0,0,0,0,0,0,0,0,0,0,0,0,0,0,0,0,0,0,0,0,0,0,0,0,0,0,0,0,0,0,0,0,0],"split_type":[0,0,0,0,0,0,0,0,0,0,0,0,0,0,0,0,0,0,0,0,0,0,0,0,0,0,0,0,0,0,0,0,0,0,0,0,0,0,0,0,0,0,0,0,0,0,0,0,0,0,0,0,0,0,0,0,0,0,0,0,0,0,0,0,0,0,0,0,0,0,0,0,0,0,0,0,0,0,0,0,0,0,0,0,0,0,0,0,0,0,0,0,0,0,0,0,0],"sum_hessian":[1.3431091E3,2.1514595E2,1.1279633E3,1.1982391E2,9.532204E1,6.458275E2,4.821357E2,2.910798E1,9.0715935E1,5.4556976E1,4.0765057E1,5.940283E2,5.1799194E1,1.2255588E2,3.5957983E2,1.2523339E1,7.81926E1,4.970002E1,4.8569584E0,3.2794357E1,7.9707007E0,1.4368172E2,4.503466E2,7.172272E0,4.4626923E1,7.022996E1,5.232592E1,3.1166775E1,3.2841306E2,9.785083E0,2.7382557E0,4.7055893E1,3.1136702E1,1.7068844E1,3.2631176E1,2.4962146E0,3.0298141E1,5.0450044E0,2.9256964E0,1.0796789E2,3.5713833E1,1.9672925E2,2.5361736E2,1.0333062E0,6.138966E0,2.5907015E1,1.8719908E1,1.082619E1,5.9403767E1,7.011832E0,4.5314087E1,5.3408675E0,2.5825907E1,2.7714787E1,3.0069827E2,1.6655947E0,8.119489E0,1.7181429E1,2.9874464E1,2.420025E1,6.9364505E0,1.0920973E0,1.5976747E1,2.4729979E1,7.9011974E0,1.0392268E0,1.4569879E0,1.0984926E0,3.946512E0,3.2765053E1,7.5202835E1,9.469129E0,2.6244707E1,1.5990952E0,1.9513016E2,8.379068E0,2.4523828E2,7.845888E0,1.8061127E1,8.496899E0,1.0223008E1,5.195246E0,5.6309433E0,5.6241455E1,3.1623113E0,4.279728E0,2.7321043E0,4.779995E0,4.0534092E1,2.7365656E0,2.6043022E0,3.8875058E0,2.1938402E1,2.6618761E1,1.0960256E0,2.0746724E2,9.323103E1],"tree_param":{"num_deleted":"0","num_feature":"16","num_nodes":"97","size_leaf_vector":"0"}},{"base_weights":[-1.4232181E-1,4.6099848E-1,-2.4991837E-1,6.568347E-1,2.2141677E-1,-4.5718738E-1,1.2393199E-2,7.310128E-1,1.2655838E-1,-1.6704866E-1,7.281955E-1,-5.3692734E-1,5.3943634E-1,-3.986222E-1,2.3966585E-1,5.899024E-1,9.558863E-1,-1.6424187E-1,8.044984E-1,-4.043708E-1,2.556388E-1,-1.2236916E0,8.971405E-1,-8.227506E-1,-3.6096612E-1,1.0286832E0,4.1210973E-1,-1.697494E-1,-9.059456E-1,1.1193794E0,1.0941491E-1,9.888894E-1,3.367438E-1,1.0144325E0,2.110978E-1,3.5242757E-1,-9.2023563E-1,-1.0569344E-1,-9.4483984E-1,6.703935E-1,-6.1421937E-1,-1.9407892E0,1.2961628E-1,1.0528302E0,-1.2831414E-1,7.770936E-1,-8.777409E-1,-9.452996E-2,-6.342444E-1,3.577903E-1,1.1620336E0,-8.3937174E-1,5.2165884E-1,-3.3356795E-1,1.8125983E0,-9.633358E-1,6.591605E-1,-9.4726783E-1,1.5049531E0,-1.11812286E-1,4.862049E-1,1.0251291E0,-9.1922125E-3,-4.5791447E-1,6.5243936E-1,-4.5596132E-1,8.5782003E-1,-1.5449513E0,5.5602276E-1,-4.9189734E-1,8.017232E-1,-1.1817138E0,1.9818795E-1,-1.16644055E-1,1.3353282E0,-9.548575E-1,4.0400454E-1,7.4375635E-1,1.4766492E0,-1.0273807E0,8.2907426E-1,-2.1483105E-1,1.0174294E0,6.0824573E-1,-9.0945554E-1,-2.8114957E-1,1.383236E0,1.5116789E0,-7.189027E-1,1.3437907E0,3.3693713E-1,-1.0183822E0,-1.4166054E-1,-9.253304E-1,2.7032182E0,-1.5527456E-1,-9.980792E-1,2.4201317E0,6.37239E-1,3.2630217E-1,-7.859054E-1,1.8077334E0,2.897289E-1],"categories":[],"categories_nodes":[],"categories_segments":[],"categories_sizes":[],"default_left":[true,true,true,true,true,true,true,true,true,true,true,true,true,true,true,true,true,true,false,true,true,true,true,true,true,true,true,true,true,true,true,false,true,false,true,true,true,true,true,true,true,false,false,true,true,true,true,true,true,false,false,false,true,true,true,true,false,false,true,true,true,false,false,false,false,false,false,false,false,false,false,false,false,false,false,false,false,false,false,false,false,false,false,false,false,false,false,false,false,false,false,false,false,false,false,false,false,false,false,false,false,false,false],"id":9,"left_children":[1,3,5,7,9,11,13,15,17,19,21,23,25,27,29,31,33,35,-1,37,39,41,43,45,47,49,51,53,55,57,59,-1,61,-1,63,65,67,69,71,73,75,-1,-1,77,79,81,83,85,87,-1,-1,-1,89,91,93,95,-1,-1,97,99,101,-1,-1,-1,-1,-1,-1,-1,-1,-1,-1,-1,-1,-1,-1,-1,-1,-1,-1,-1,-1,-1,-1,-1,-1,-1,-1,-1,-1,-1,-1,-1,-1,-1,-1,-1,-1,-1,-1,-1,-1,-1,-1],"loss_changes":[7.7550766E1,8.341782E0,5.508049E1,3.8025894E0,1.643543E1,4.5261032E1,4.195325E1,2.1861038E0,2.7662945E0,4.890606E0,1.3016905E1,2.6080353E1,2.2186623E0,1.8415735E1,3.3011436E1,5.309292E0,1.1725788E0,4.301034E0,0E0,4.896321E0,6.8237224E0,3.4562678E0,5.538109E0,1.819487E1,2.3705704E1,3.081665E-1,5.281471E0,3.6793766E1,5.0801277E0,3.105587E1,2.1142124E1,0E0,8.509054E0,0E0,1.3559487E0,3.1574059E0,4.926284E0,7.774844E0,3.1827621E0,6.703959E0,2.5570173E0,0E0,0E0,2.7646751E0,5.4587154E0,1.9219813E0,9.644943E0,4.6291016E1,3.0327759E1,0E0,0E0,0E0,4.5743437E0,1.3494189E1,2.3622318E1,1.1966629E0,0E0,0E0,2.365033E1,4.757106E1,2.3824636E1,0E0,0E0,0E0,0E0,0E0,0E0,0E0,0E0,0E0,0E0,0E0,0E0,0E0,0E0,0E0,0E0,0E0,0E0,0E0,0E0,0E0,0E0,0E0,0E0,0E0,0E0,0E0,0E0,0E0,0E0,0E0,0E0,0E0,0E0,0E0,0E0,0E0,0E0,0E0,0E0,0E0,0E0],"parents":[2147483647,0,0,1,1,2,2,3,3,4,4,5,5,6,6,7,7,8,8,9,9,10,10,11,11,12,12,13,13,14,14,15,15,16,16,17,17,19,19,20,20,21,21,22,22,23,23,24,24,25,25,26,26,27,27,28,28,29,29,30,30,32,32,34,34,35,35,36,36,37,37,38,38,39,39,40,40,43,43,44,44,45,45,46,46,47,47,48,48,52,52,53,53,54,54,55,55,58,58,59,59,60,60],"right_children":[2,4,6,8,10,12,14,16,18,20,22,24,26,28,30,32,34,36,-1,38,40,42,44,46,48,50,52,54,56,58,60,-1,62,-1,64,66,68,70,72,74,76,-1,-1,78,80,82,84,86,88,-1,-1,-1,90,92,94,96,-1,-1,98,100,102,-1,-1,-1,-1,-1,-1,-1,-1,-1,-1,-1,-1,-1,-1,-1,-1,-1,-1,-1,-1,-1,-1,-1,-1,-1,-1,-1,-1,-1,-1,-1,-1,-1,-1,-1,-1,-1,-1,-1,-1,-1,-1],"split_conditions":[-1.0925674E1,-4.390964E1,9.911505E0,3.0140322E1,-8.08095E0,1.7010721E1,2.7046275E0,4.3188744E0,-3.4128727E1,-1.3434166E1,-2.7284433E1,7.802075E0,3.3295026E0,1.8628192E0,5.2393703E0,-1.7474716E2,-4.6463543E1,5.9529777E0,2.4134952E-1,-1.504438E1,-8.303551E0,7.876825E0,4.2188406E0,-1.2031017E1,1.8799008E0,4.301447E0,5.483012E0,2.101635E0,1.30142975E1,-1.2814507E0,9.157986E0,2.9666683E-1,-1.1022279E1,3.0432978E-1,-4.5108585E1,-4.3507744E1,7.0795145E0,-2.0059547E1,1.0752624E1,-9.251099E0,1.1549032E1,-5.8223677E-1,3.8884886E-2,-8.680956E0,9.805614E0,-1.0453703E1,3.3502202E0,2.626558E0,-2.38279E0,1.07337095E-1,3.4861007E-1,-2.5181153E-1,1.3175387E1,-1.5083145E1,9.1378905E-2,9.993767E0,1.9774815E-1,-2.8418037E-1,4.162031E0,6.0319724E0,1.0287801E1,3.0753875E-1,-2.7576638E-3,-1.3737434E-1,1.9573182E-1,-1.367884E-1,2.5734603E-1,-4.6348542E-1,1.6680683E-1,-1.4756921E-1,2.4051696E-1,-3.5451415E-1,5.9456386E-2,-3.4993216E-2,4.005985E-1,-2.8645727E-1,1.21201366E-1,2.2312692E-1,4.4299477E-1,-3.0821422E-1,2.4872229E-1,-6.444932E-2,3.0522883E-1,1.8247372E-1,-2.728367E-1,-8.434487E-2,4.1497084E-1,4.535037E-1,-2.1567082E-1,4.031372E-1,1.0108114E-1,-3.0551466E-1,-4.2498164E-2,-2.7759913E-1,8.109655E-1,-4.6582367E-2,-2.9942375E-1,7.260395E-1,1.911717E-1,9.789065E-2,-2.3577164E-1,5.423201E-1,8.6918674E-2],"split_indices":[4,5,0,15,15,15,3,0,13,4,13,0,12,10,1,1,6,0,0,7,12,0,11,1,9,13,8,13,15,12,13,0,0,0,3,4,0,3,0,14,0,0,0,5,0,4,0,8,5,0,0,0,4,6,4,0,0,0,5,10,5,0,0,0,0,0,0,0,0,0,0,0,0,0,0,0,0,0,0,0,0,0,0,0,0,0,0,0,0,0,0,0,0,0,0,0,0,0,0,0,0,0,0],"split_type":[0,0,0,0,0,0,0,0,0,0,0,0,0,0,0,0,0,0,0,0,0,0,0,0,0,0,0,0,0,0,0,0,0,0,0,0,0,0,0,0,0,0,0,0,0,0,0,0,0,0,0,0,0,0,0,0,0,0,0,0,0,0,0,0,0,0,0,0,0,0,0,0,0,0,0,0,0,0,0,0,0,0,0,0,0,0,0,0,0,0,0,0,0,0,0,0,0,0,0,0,0,0,0],"sum_hessian":[1.1918727E3,1.7989165E2,1.0119811E3,9.802419E1,8.1867455E1,5.648859E2,4.4709512E2,8.566266E1,1.2361539E1,4.672291E1,3.5144543E1,5.234647E2,4.142122E1,1.589269E2,2.881682E2,5.4860428E1,3.0802229E1,9.181078E0,3.1804607E0,2.995033E1,1.6772583E1,2.3022795E0,3.2842266E1,1.9806363E2,3.254011E2,7.091883E0,3.4329334E1,1.104385E2,4.8488403E1,3.6184498E1,2.5198372E2,2.0168283E1,3.4692146E1,2.8221733E1,2.5804942E0,5.7708936E0,3.4101841E0,2.0060133E1,9.890198E0,1.1512598E1,5.259984E0,1.2211189E0,1.0811605E0,2.8490063E1,4.3522034E0,6.1453094E0,1.9191832E2,1.6544464E2,1.5995645E2,1.7865812E0,5.305302E0,2.2269337E0,3.21024E1,1.02776886E2,7.661614E0,4.7144184E1,1.3442185E0,5.4603963E0,3.07241E1,1.5920934E2,9.277438E1,1.0946376E1,2.3745771E1,1.0107646E0,1.5697294E0,2.2576034E0,3.5132904E0,2.3634849E0,1.0466994E0,1.4392488E1,5.6676455E0,8.164411E0,1.7257873E0,5.6498437E0,5.8627543E0,3.9880486E0,1.2719355E0,1.8068403E1,1.04216585E1,2.2067633E0,2.1454399E0,1.2192572E0,4.926052E0,3.6305516E0,1.8828778E2,1.4761308E2,1.7831562E1,5.4311514E0,1.545253E2,4.7384663E0,2.7363935E1,2.1554358E1,8.122253E1,1.8709618E0,5.7906523E0,2.168909E0,4.4975273E1,1.4082351E1,1.664175E1,9.6807205E1,6.240213E1,1.0946398E1,8.182799E1],"tree_param":{"num_deleted":"0","num_feature":"16","num_nodes":"103","size_leaf_vector":"0"}},{"base_weights":[-1.1793479E-1,3.0193675E-1,-2.579753E-1,2.5207072E-1,1.3253474E0,-3.585418E-1,3.1492448E-1,3.17894E-1,-6.36873E-1,-7.525425E-2,1.4547895E0,-6.7100245E-1,-1.9053854E-1,-3.2766682E-1,4.5030832E-1,2.40381E-1,9.7035646E-1,-1.0797905E0,8.166319E-1,1.6653399E-1,1.5657674E0,-1.9599515E-1,-7.9624677E-1,-8.1119615E-1,-8.221073E-2,3.030213E-1,-7.266784E-1,2.1588187E0,3.5886174E-1,4.174866E-1,-1.7313306E-1,1.3328097E0,-2.3075448E-1,-1.1481165E0,-1.0783549E-1,-5.028194E-1,1.3225446E0,1.6607821E0,3.597517E-1,-5.5106646E-1,1.655993E0,-9.44626E-2,-8.727598E-1,1.1678196E0,-8.756782E-1,5.655862E-1,-2.0782532E-1,-7.1148294E-1,1.2630382E0,-9.094655E-1,4.8722377E-1,2.6729486E0,2.0352449E-1,-3.8856953E-1,5.362284E-1,9.711841E-1,3.4017447E-1,-4.9607363E-1,6.6642517E-1,4.4113716E-1,1.6361991E0,-9.573677E-1,4.654546E-1,7.659718E-1,-7.095698E-1,-6.7243737E-1,4.0746837E0,-8.187079E-1,4.3148775E0,6.5098953E-1,-9.0105027E-1,-2.9281923E-1,-9.729482E-1,3.230741E-2,1.637011E0,-7.616022E-1,-5.2260123E-2,-8.9879274E-1,-3.5265572E-2,-3.4527544E-2,1.912835E0,1.15021534E-1,-1.0962642E0,3.1329339E0,7.8712195E-1,-9.909627E-1,2.5771528E-1,1.6111314E0,3.7354192E-1],"categories":[],"categories_nodes":[],"categories_segments":[],"categories_sizes":[],"default_left":[true,true,true,true,true,true,true,true,true,false,true,true,true,true,true,true,true,true,true,false,true,true,true,true,true,true,true,true,true,true,true,true,true,false,false,false,false,false,false,true,true,true,true,false,true,true,true,true,true,true,false,true,false,true,true,false,false,false,false,false,false,false,false,false,false,false,false,false,false,false,false,false,false,false,false,false,false,false,false,false,false,false,false,false,false,false,false,false,false],"id":10,"left_children":[1,3,5,7,9,11,13,15,17,-1,19,21,23,25,27,29,31,33,35,-1,37,39,41,43,45,47,49,51,53,55,57,59,61,-1,-1,-1,-1,-1,-1,63,65,67,69,-1,71,73,75,77,79,81,-1,83,-1,85,87,-1,-1,-1,-1,-1,-1,-1,-1,-1,-1,-1,-1,-1,-1,-1,-1,-1,-1,-1,-1,-1,-1,-1,-1,-1,-1,-1,-1,-1,-1,-1,-1,-1,-1],"loss_changes":[6.409707E1,1.3586668E1,4.7184093E1,1.5494198E1,2.3645878E0,3.638041E1,1.0807455E1,1.2106289E1,1.269525E1,0E0,1.3741722E0,1.4287849E1,3.0436396E1,5.731887E0,1.5103779E1,1.614088E1,1.1443186E1,8.387985E-1,3.9059246E0,0E0,5.953598E-1,3.5097187E1,1.0216515E1,9.61145E0,3.1639503E1,9.851897E0,3.4849925E0,4.446127E0,1.3155963E1,6.2581177E0,1.8360538E1,4.633751E0,3.8763986E0,0E0,0E0,0E0,0E0,0E0,0E0,9.80636E0,5.1246265E1,6.732853E1,8.036652E0,0E0,3.4429207E0,3.6049057E1,2.7974995E1,6.154506E-1,4.3522873E0,2.473073E0,0E0,8.7199974E-1,0E0,7.7736053E0,1.3275215E1,0E0,0E0,0E0,0E0,0E0,0E0,0E0,0E0,0E0,0E0,0E0,0E0,0E0,0E0,0E0,0E0,0E0,0E0,0E0,0E0,0E0,0E0,0E0,0E0,0E0,0E0,0E0,0E0,0E0,0E0,0E0,0E0,0E0,0E0],"parents":[2147483647,0,0,1,1,2,2,3,3,4,4,5,5,6,6,7,7,8,8,10,10,11,11,12,12,13,13,14,14,15,15,16,16,17,17,18,18,20,20,21,21,22,22,23,23,24,24,25,25,26,26,27,27,28,28,29,29,30,30,31,31,32,32,39,39,40,40,41,41,42,42,44,44,45,45,46,46,47,47,48,48,49,49,51,51,53,53,54,54],"right_children":[2,4,6,8,10,12,14,16,18,-1,20,22,24,26,28,30,32,34,36,-1,38,40,42,44,46,48,50,52,54,56,58,60,62,-1,-1,-1,-1,-1,-1,64,66,68,70,-1,72,74,76,78,80,82,-1,84,-1,86,88,-1,-1,-1,-1,-1,-1,-1,-1,-1,-1,-1,-1,-1,-1,-1,-1,-1,-1,-1,-1,-1,-1,-1,-1,-1,-1,-1,-1,-1,-1,-1,-1,-1,-1],"split_conditions":[-3.867404E0,5.9006004E0,1.4596718E1,9.6979864E-2,8.419485E0,8.916748E0,1.2661292E1,-2.4973397E0,1.0083121E1,-2.2576274E-2,1.5229651E0,-1.4685094E-5,-1.3764257E0,9.772883E0,2.8766055E0,-1.12287655E1,8.609863E0,5.0174403E0,-3.1796029E0,4.99602E-2,1.1007936E1,2.6562762E0,-1.5727087E0,-1.11429405E1,4.5262098E-1,3.1373122E0,1.607497E1,1.680909E1,8.043352E0,-1.4847087E2,-1.823333E0,-3.2534494E0,-3.033566E0,-3.4443495E-1,-3.235065E-2,-1.5084583E-1,3.9676338E-1,4.9823466E-1,1.0792551E-1,-8.236343E0,-3.730306E-1,8.6952505E0,3.1932125E0,3.503459E-1,-2.999298E0,1.0982959E0,4.4739562E-1,1.3172431E0,1.669497E1,1.5493002E0,1.4616714E-1,2.0213228E1,6.1057348E-2,1.1506204E1,1.6742027E1,2.9135522E-1,1.02052346E-1,-1.488221E-1,1.9992755E-1,1.3234116E-1,4.9085975E-1,-2.8721032E-1,1.3963638E-1,2.2979154E-1,-2.1287096E-1,-2.0173122E-1,1.2224052E0,-2.4561237E-1,1.2944633E0,1.9529687E-1,-2.7031508E-1,-8.784577E-2,-2.9188448E-1,9.692223E-3,4.9110332E-1,-2.2848068E-1,-1.5678037E-2,-2.6963782E-1,-1.0579672E-2,-1.0358264E-2,5.738505E-1,3.4506463E-2,-3.288793E-1,9.398802E-1,2.361366E-1,-2.972888E-1,7.7314585E-2,4.8333946E-1,1.1206258E-1],"split_indices":[10,6,12,2,0,0,6,14,0,0,11,2,14,5,4,10,11,6,1,0,6,4,9,4,9,13,15,6,15,5,5,12,15,0,0,0,0,0,0,5,12,5,0,0,10,8,15,13,11,13,0,1,0,9,7,0,0,0,0,0,0,0,0,0,0,0,0,0,0,0,0,0,0,0,0,0,0,0,0,0,0,0,0,0,0,0,0,0,0],"split_type":[0,0,0,0,0,0,0,0,0,0,0,0,0,0,0,0,0,0,0,0,0,0,0,0,0,0,0,0,0,0,0,0,0,0,0,0,0,0,0,0,0,0,0,0,0,0,0,0,0,0,0,0,0,0,0,0,0,0,0,0,0,0,0,0,0,0,0,0,0,0,0,0,0,0,0,0,0,0,0,0,0,0,0,0,0,0,0,0,0],"sum_hessian":[1.0877793E3,2.7177713E2,8.160022E2,2.6033838E2,1.1438765E1,6.944696E2,1.2153259E2,2.429883E2,1.7350069E1,1.003138E0,1.0435626E1,2.4178748E2,4.526821E2,2.0902035E1,1.00630554E2,2.1840952E2,2.4578787E1,1.3494949E1,3.855119E0,1.0260155E0,9.409611E0,5.098488E1,1.908026E2,6.630475E1,3.8637735E2,8.19282E0,1.2709216E1,3.9639542E0,9.66666E1,1.5290962E2,6.5499886E1,1.8796896E1,5.7818913E0,1.2439258E1,1.0556921E0,1.0701683E0,2.7849507E0,8.37288E0,1.0367306E0,4.3371876E1,7.6130013E0,1.897715E1,1.7182544E2,1.5523012E0,6.475245E1,6.218509E1,3.2419226E2,4.109239E0,4.083581E0,1.1263909E1,1.4453064E0,2.8480499E0,1.1159042E0,1.8311275E1,7.835533E1,1.7318113E1,1.355915E2,4.759958E1,1.7900307E1,5.394956E0,1.3401939E1,2.6456199E0,3.1362717E0,4.2473354E0,3.9124542E1,4.2467318E0,3.3662696E0,1.6999296E1,1.9778533E0,2.7308028E0,1.6909465E2,9.834258E0,5.491819E1,4.220741E1,1.997768E1,7.024396E1,2.5394832E2,2.9601426E0,1.1490965E0,1.6785611E0,2.4050198E0,1.7963237E0,9.467586E0,1.7579503E0,1.0900996E0,9.201428E0,9.109846E0,9.12977E0,6.9225555E1],"tree_param":{"num_deleted":"0","num_feature":"16","num_nodes":"89","size_leaf_vector":"0"}},{"base_weights":[-9.88096E-2,2.6825175E-1,-2.0378156E-1,9.481177E-1,2.2118211E-1,-3.5269892E-1,9.9386044E-2,4.240563E-2,4.362229E-1,-8.745587E-1,-2.5637332E-1,-8.636676E-2,6.397345E-1,1.4547244E-1,-7.5803906E-1,-2.510372E-1,6.0175234E-1,7.5280577E-1,-9.2782265E-1,-7.397275E-2,-5.6265074E-1,4.5146072E-1,-2.3700179E-1,1.2938615E0,2.2858179E-1,9.6652824E-1,6.5028295E-2,3.352028E-1,-8.8435507E-1,9.0346694E-1,-1.0017258E0,6.76727E-1,-6.730197E-1,-9.765222E-1,3.5352774E-2,-2.9276899E-1,6.372292E-1,-8.93834E-2,-8.2383865E-1,-8.178527E-3,1.4352787E0,-6.288596E-1,6.2152907E-2,1.5722756E0,3.6701968E-1,-9.642565E-1,5.00381E-1,-2.010661E-2,9.82892E-1,-1.9288786E-1,-1.0072635E0,5.917704E-1,1.4196811E0,-8.8396406E-1,5.659049E-2,-2.8869536E-2,-9.890537E-1,1.4897339E0,-7.4850804E-1,-6.890755E-1,-1.0357257E-2,-6.287281E-1,9.9211216E-1,-2.678378E-1,1.2967728E0,-9.243871E-1,2.03445E-2,-3.2258454E-1,1.1070563E0,2.8296502E0,-3.2946846E-1,-7.2624683E-1,9.7016495E-1,5.6718457E-1,-1.3701135E-1,2.6594925E-1,1.8511947E0,-4.6852344E-1,9.928215E-1,-1.0370939E0,-2.3471826E-1,-4.8948184E-2,6.3890934E-1],"categories":[],"categories_nodes":[],"categories_segments":[],"categories_sizes":[],"default_left":[true,true,true,false,true,true,true,true,true,true,true,true,true,true,true,true,true,false,true,true,true,true,true,true,true,false,true,false,true,false,false,true,true,true,true,true,true,true,true,true,true,true,true,true,true,true,true,false,false,false,false,false,false,false,false,false,false,false,false,false,false,false,false,false,false,false,false,false,false,false,false,false,false,false,false,false,false,false,false,false,false,false,false],"id":11,"left_children":[1,3,5,-1,7,9,11,13,15,17,19,21,23,25,27,29,31,-1,33,35,37,39,41,43,45,-1,47,-1,49,-1,-1,51,53,55,57,59,61,63,65,67,69,71,73,75,77,79,81,-1,-1,-1,-1,-1,-1,-1,-1,-1,-1,-1,-1,-1,-1,-1,-1,-1,-1,-1,-1,-1,-1,-1,-1,-1,-1,-1,-1,-1,-1,-1,-1,-1,-1,-1,-1],"loss_changes":[3.856679E1,6.9170685E0,3.5150414E1,0E0,8.038971E0,2.6006508E1,2.5849571E1,9.643214E0,1.09626045E1,7.710373E0,2.4646248E1,1.5672267E1,1.7417698E1,6.7540383E0,2.1389456E0,1.7504055E1,7.803688E0,0E0,3.7297134E0,4.346475E1,2.0297096E1,1.9176666E1,1.7710365E1,5.927128E0,1.3988191E1,0E0,7.4488826E0,0E0,8.455572E-1,0E0,0E0,3.77462E0,7.844794E-1,8.623657E-1,6.5376496E0,2.387416E1,3.016187E1,1.5121664E1,9.022125E0,1.0834228E1,3.4154743E1,1.0881321E1,8.76762E0,6.4591255E0,4.191755E0,1.855073E-1,2.6630964E0,0E0,0E0,0E0,0E0,0E0,0E0,0E0,0E0,0E0,0E0,0E0,0E0,0E0,0E0,0E0,0E0,0E0,0E0,0E0,0E0,0E0,0E0,0E0,0E0,0E0,0E0,0E0,0E0,0E0,0E0,0E0,0E0,0E0,0E0,0E0,0E0],"parents":[2147483647,0,0,1,1,2,2,4,4,5,5,6,6,7,7,8,8,9,9,10,10,11,11,12,12,13,13,14,14,15,15,16,16,18,18,19,19,20,20,21,21,22,22,23,23,24,24,26,26,28,28,31,31,32,32,33,33,34,34,35,35,36,36,37,37,38,38,39,39,40,40,41,41,42,42,43,43,44,44,45,45,46,46],"right_children":[2,4,6,-1,8,10,12,14,16,18,20,22,24,26,28,30,32,-1,34,36,38,40,42,44,46,-1,48,-1,50,-1,-1,52,54,56,58,60,62,64,66,68,70,72,74,76,78,80,82,-1,-1,-1,-1,-1,-1,-1,-1,-1,-1,-1,-1,-1,-1,-1,-1,-1,-1,-1,-1,-1,-1,-1,-1,-1,-1,-1,-1,-1,-1,-1,-1,-1,-1,-1,-1],"split_conditions":[-5.471607E0,-1.4847087E2,5.9842052E0,2.844353E-1,8.08413E0,7.5853395E0,1.2051532E1,-6.303027E0,-3.891626E1,-1.248234E1,2.681713E0,2.5598912E0,1.0332503E1,-1.1022279E1,5.6735215E0,-2.9827929E1,2.2933035E0,2.2584175E-1,8.18202E0,7.466781E0,5.5415144E0,5.5261774E0,8.903755E0,1.349949E1,1.4545082E1,2.8995848E-1,-4.087023E0,1.0056085E-1,-1.0629765E1,2.7104008E-1,-3.0051774E-1,4.1247973E0,-2.2710214E0,-5.0481663E0,7.398529E0,-2.0728254E0,-6.869135E-1,1.0179857E1,1.6824965E1,8.862701E0,5.8432264E0,1.1155945E1,1.1267872E1,5.548217E0,1.0483707E1,1.1550908E1,1.4175326E1,-6.031983E-3,2.948676E-1,-5.786636E-2,-3.0217907E-1,1.7753112E-1,4.2590433E-1,-2.6518923E-1,1.6977148E-2,-8.660861E-3,-2.9671612E-1,4.469202E-1,-2.2455242E-1,-2.0672266E-1,-3.1071773E-3,-1.8861844E-1,2.9763365E-1,-8.035134E-2,3.8903186E-1,-2.7731615E-1,6.1033503E-3,-9.677537E-2,3.321169E-1,8.488951E-1,-9.884054E-2,-2.1787407E-1,2.910495E-1,1.7015538E-1,-4.1103408E-2,7.978478E-2,5.5535847E-1,-1.4055704E-1,2.9784647E-1,-3.1112817E-1,-7.041548E-2,-1.46844555E-2,1.9167282E-1],"split_indices":[10,5,15,0,0,0,0,2,11,0,9,4,4,0,0,10,4,0,14,6,5,8,13,2,12,0,5,0,10,0,0,6,15,10,9,15,14,11,3,1,10,14,5,14,12,3,15,0,0,0,0,0,0,0,0,0,0,0,0,0,0,0,0,0,0,0,0,0,0,0,0,0,0,0,0,0,0,0,0,0,0,0,0],"split_type":[0,0,0,0,0,0,0,0,0,0,0,0,0,0,0,0,0,0,0,0,0,0,0,0,0,0,0,0,0,0,0,0,0,0,0,0,0,0,0,0,0,0,0,0,0,0,0,0,0,0,0,0,0,0,0,0,0,0,0,0,0,0,0,0,0,0,0,0,0,0,0,0,0,0,0,0,0,0,0,0,0,0,0],"sum_hessian":[9.985065E2,2.2170448E2,7.76802E2,1.3116018E1,2.0858847E2,5.2081287E2,2.5598912E2,1.14551796E2,9.4036674E1,7.989413E1,4.4091873E2,1.9112666E2,6.486246E1,1.0220937E2,1.2342418E1,1.815258E1,7.5884094E1,2.1158392E0,7.777828E1,2.771226E2,1.6379616E2,4.1381405E1,1.4974525E2,2.4205538E1,4.065692E1,8.137618E0,9.4071754E1,1.1070887E0,1.1235329E1,7.072333E0,1.1080248E1,7.211202E1,3.772067E0,7.4021774E1,3.7565067E0,2.1237521E2,6.4747375E1,5.8726715E1,1.0506944E2,2.8880253E1,1.2501153E1,6.435092E1,8.539433E1,1.8078543E1,6.126995E0,7.072099E0,3.358482E1,8.698199E1,7.089773E0,2.0834522E0,9.151876E0,6.632436E1,5.787658E0,2.7619712E0,1.0100958E0,1.009188E0,7.301259E1,1.0002071E0,2.7562997E0,8.776924E1,1.2460597E2,1.4007484E1,5.0739895E1,5.2743298E1,5.98342E0,9.3801926E1,1.1267514E1,2.308336E1,5.796893E0,6.6463065E0,5.854846E0,6.1171165E1,3.1797578E0,2.362905E1,6.1765285E1,3.5245774E0,1.45539665E1,2.7314312E0,3.395564E0,6.0468082E0,1.0252911E0,6.8939123E0,2.6690908E1],"tree_param":{"num_deleted":"0","num_feature":"16","num_nodes":"83","size_leaf_vector":"0"}},{"base_weights":[-8.175758E-2,1.9779879E-1,-1.8345837E-1,1.4381821E-1,1.2048492E0,-4.41565E-1,-2.7041575E-2,2.0306711E-1,-5.877326E-1,5.1225054E-1,1.6357971E0,-4.9163365E-1,4.6145076E-1,-3.7344858E-1,1.0539681E-1,7.391407E-2,5.6446844E-1,-1.035169E0,7.873352E-1,-5.7322204E-1,8.3875716E-1,1.8692864E0,4.5148072E-1,-2.7324715E-1,-6.8816435E-1,-8.6623573E-1,1.1081237E0,-6.3936746E-1,3.639224E-1,4.0656444E-1,-7.1343504E-2,5.2800924E-1,-1.09804936E-1,3.8020968E-1,1.4390726E0,-1.1028152E0,-1.0766978E-1,-4.737604E-1,1.242565E0,1.0011948E0,1.5763822E-1,-8.308994E-1,7.510587E-2,-3.8334042E-1,-8.583254E-1,-6.299033E-1,1.5055975E0,9.775977E-1,-7.687687E-1,1.1944648E0,1.62446E-1,-1.6805418E-1,8.73483E-1,-7.5366145E-1,1.9328421E-1,3.1714845E-1,9.5417845E-1,-4.1432735E-1,1.4510652E-1,1.5490483E-1,7.2164625E-1,-1.9516215E-1,1.8210981E0,5.967044E-1,-9.332662E-1,-7.280508E-2,1.843244E0,-8.0022115E-1,6.4198166E-1,-9.524405E-1,3.2894238E-4,2.0924037E0,5.913579E-1,-7.249065E-1,2.0836334E0,3.253088E-1,-8.528248E-1,1.385729E0,3.602677E-1,-7.162067E-1,5.4096085E-1,2.561329E-1,-1.0244129E0,2.303804E0,6.035408E-1,-8.089127E-1,5.6444836E-1,1.0370198E0,-3.7123398E-3],"categories":[],"categories_nodes":[],"categories_segments":[],"categories_sizes":[],"default_left":[true,true,true,true,true,true,true,true,true,true,true,true,true,true,true,true,true,true,true,false,true,false,false,true,true,false,true,true,true,true,true,true,true,true,true,false,false,false,false,false,false,true,true,true,true,false,true,true,true,true,true,true,true,true,true,false,false,false,false,false,false,false,false,false,false,false,false,false,false,false,false,false,false,false,false,false,false,false,false,false,false,false,false,false,false,false,false,false,false],"id":12,"left_children":[1,3,5,7,9,11,13,15,17,19,21,23,25,27,29,31,33,35,37,-1,39,-1,-1,41,43,-1,45,47,49,51,53,55,57,59,61,-1,-1,-1,-1,-1,-1,63,65,67,69,-1,71,73,75,77,79,81,83,85,87,-1,-1,-1,-1,-1,-1,-1,-1,-1,-1,-1,-1,-1,-1,-1,-1,-1,-1,-1,-1,-1,-1,-1,-1,-1,-1,-1,-1,-1,-1,-1,-1,-1,-1],"loss_changes":[2.6302862E1,1.3249794E1,2.7358143E1,1.0326635E1,2.8711529E0,1.1790077E1,1.9454422E1,1.016149E1,1.1828635E1,2.6860895E0,1.1482754E0,1.0232834E1,1.2938162E1,2.322633E1,1.6366236E1,1.3589238E1,8.703266E0,7.5576115E-1,3.4377472E0,0E0,4.163339E-1,0E0,0E0,2.272546E1,6.2654037E0,0E0,7.732562E0,1.8860588E1,5.1135364E0,3.064101E1,3.522301E1,3.91117E0,9.088317E0,3.6400847E0,6.367388E0,0E0,0E0,0E0,0E0,0E0,0E0,7.124279E0,1.915357E1,2.0754114E1,6.5285873E0,0E0,3.2087803E0,1.4415194E1,7.698429E0,4.6363354E-1,9.261918E0,1.907574E1,2.288248E1,4.4251957E0,2.340265E1,0E0,0E0,0E0,0E0,0E0,0E0,0E0,0E0,0E0,0E0,0E0,0E0,0E0,0E0,0E0,0E0,0E0,0E0,0E0,0E0,0E0,0E0,0E0,0E0,0E0,0E0,0E0,0E0,0E0,0E0,0E0,0E0,0E0,0E0],"parents":[2147483647,0,0,1,1,2,2,3,3,4,4,5,5,6,6,7,7,8,8,9,9,10,10,11,11,12,12,13,13,14,14,15,15,16,16,17,17,18,18,20,20,23,23,24,24,26,26,27,27,28,28,29,29,30,30,31,31,32,32,33,33,34,34,41,41,42,42,43,43,44,44,46,46,47,47,48,48,49,49,50,50,51,51,52,52,53,53,54,54],"right_children":[2,4,6,8,10,12,14,16,18,20,22,24,26,28,30,32,34,36,38,-1,40,-1,-1,42,44,-1,46,48,50,52,54,56,58,60,62,-1,-1,-1,-1,-1,-1,64,66,68,70,-1,72,74,76,78,80,82,84,86,88,-1,-1,-1,-1,-1,-1,-1,-1,-1,-1,-1,-1,-1,-1,-1,-1,-1,-1,-1,-1,-1,-1,-1,-1,-1,-1,-1,-1,-1,-1,-1,-1,-1,-1],"split_conditions":[-3.3642159E0,5.9006004E0,1.3783045E0,9.6979864E-2,-1.8322105E0,1.5842043E1,8.916565E0,-6.282496E-1,1.0233469E1,9.184021E0,-2.9096913E0,4.8772395E-1,1.1259368E1,1.5124649E1,5.813678E0,-3.1588058E1,-4.1951413E0,5.0174403E0,-3.1796029E0,-1.7196661E-1,-5.6253223E0,5.6078595E-1,1.3544422E-1,-1.6878486E0,4.0976195E0,-2.5987074E-1,8.594454E0,-2.8063416E0,1.2246151E1,2.8160267E0,8.60586E0,3.0595438E0,-8.931963E0,8.382275E0,-2.6539555E0,-3.3084455E-1,-3.2300934E-2,-1.4212812E-1,3.7276953E-1,3.0035847E-1,4.729147E-2,-1.1061424E1,1.1216103E1,2.071385E0,1.4662596E1,-1.88971E-1,1.2038257E1,2.4845045E0,-4.421295E-1,1.5208822E1,2.9917942E1,3.2477553E0,2.002649E0,1.4297314E1,5.0674696E0,9.514454E-2,2.8625354E-1,-1.2429821E-1,4.3531958E-2,4.647145E-2,2.1649389E-1,-5.8548648E-2,5.4632944E-1,1.7901133E-1,-2.7997988E-1,-2.1841524E-2,5.529732E-1,-2.4006635E-1,1.9259451E-1,-2.8573215E-1,9.8682714E-5,6.2772113E-1,1.7740737E-1,-2.1747196E-1,6.2509006E-1,9.7592644E-2,-2.5584745E-1,4.157187E-1,1.0808031E-1,-2.1486203E-1,1.6228826E-1,7.683987E-2,-3.0732387E-1,6.911412E-1,1.8106224E-1,-2.4267381E-1,1.6933452E-1,3.1110597E-1,-1.113702E-3],"split_indices":[10,6,15,2,4,6,0,15,0,0,9,9,12,15,5,12,9,6,1,0,8,0,0,14,1,0,0,5,6,13,6,0,11,0,12,0,0,0,0,0,0,5,7,7,12,0,7,9,10,8,15,4,9,1,10,0,0,0,0,0,0,0,0,0,0,0,0,0,0,0,0,0,0,0,0,0,0,0,0,0,0,0,0,0,0,0,0,0,0],"split_type":[0,0,0,0,0,0,0,0,0,0,0,0,0,0,0,0,0,0,0,0,0,0,0,0,0,0,0,0,0,0,0,0,0,0,0,0,0,0,0,0,0,0,0,0,0,0,0,0,0,0,0,0,0,0,0,0,0,0,0,0,0,0,0,0,0,0,0,0,0,0,0,0,0,0,0,0,0,0,0,0,0,0,0,0,0,0,0,0,0],"sum_hessian":[9.228676E2,2.4592393E2,6.7694366E2,2.3449709E2,1.1426854E1,2.5475089E2,4.2219278E2,2.175962E2,1.6900877E1,5.2223716E0,6.204483E0,2.417996E2,1.295127E1,1.1626617E2,3.059266E2,1.6119492E2,5.6401287E1,1.2938106E1,3.9627717E0,1.032893E0,4.1894784E0,4.699587E0,1.504896E0,1.1566361E2,1.26136E2,4.1307945E0,8.820476E0,8.554786E1,3.0718307E1,1.1265713E2,1.9326947E2,4.589155E1,1.1530337E2,4.7771637E1,8.62965E0,1.1882452E1,1.0556536E0,1.0402696E0,2.9225023E0,3.0033045E0,1.1861742E0,4.393928E1,7.172433E1,4.6352913E1,7.978309E1,1.5328854E0,7.28759E0,5.853184E0,7.969468E1,5.0348163E0,2.568349E1,5.0790855E1,6.1866272E1,5.3493484E1,1.3977599E2,3.1868015E1,1.4023533E1,5.225414E1,6.3049232E1,2.9656073E1,1.8115562E1,1.7277582E0,6.9018917E0,2.6167743E0,4.132251E1,6.707232E1,4.6520104E0,3.3110302E1,1.3242614E1,7.1803635E1,7.9794545E0,3.6537452E0,3.633845E0,2.4407558E0,3.4124286E0,5.4811883E0,7.4213486E1,3.557908E0,1.476908E0,7.464312E0,1.821918E1,3.443486E1,1.6355993E1,8.625992E0,5.324028E1,5.1712173E1,1.7813102E0,2.565056E1,1.1412543E2],"tree_param":{"num_deleted":"0","num_feature":"16","num_nodes":"89","size_leaf_vector":"0"}},{"base_weights":[-6.7212276E-2,-1.1913279E-1,3.387694E-1,3.3140483E-1,-1.8036331E-1,-7.103732E-1,4.643859E-1,3.7566575E-1,-7.235808E-1,-4.610549E-1,-1.13155484E-1,5.3217113E-1,-8.912513E-1,1.8747133E0,3.2320097E-1,3.170263E-1,1.332959E0,4.6619344E-1,-6.224185E-1,-2.0351103E-3,-3.630476E-1,-9.501162E-1,-2.0334506E-1,6.4422137E-1,2.8729596E0,-2.2510046E-1,6.383661E-1,9.158649E-1,2.3373282E-1,8.902268E-1,2.3231228E-1,-1.7438392E-1,-8.846535E-1,-9.238157E-2,8.620201E-1,1.2722996E0,-4.3096843E-1,1.1516982E0,-4.6922985E-2,9.120533E-1,-4.65388E-1,1.34916E0,3.8113362E-1,-6.9419116E-1,3.0210447E-1,-1.1312677E-1,8.4905094E-1,-8.631339E-1,1.6643322E-1,-9.222111E-1,6.014234E-1,-2.568504E-3,-5.631315E-1,1.4933599E0,3.823479E-1,-3.303425E-1,2.4444833E0,-6.7457503E-1,-7.69533E-2,1.1915615E0,1.564816E-1,7.4684465E-1,-6.197266E-1,7.855733E-2,1.5370522E0,-7.8793836E-1,5.0785404E-1],"categories":[],"categories_nodes":[],"categories_segments":[],"categories_sizes":[],"default_left":[true,true,true,true,true,true,true,true,false,true,true,false,true,true,true,true,false,true,true,true,true,false,false,true,false,true,true,false,true,false,true,true,true,true,true,true,true,false,false,true,true,true,true,false,false,false,false,false,false,false,false,false,false,false,false,false,false,false,false,false,false,false,false,false,false,false,false],"id":13,"left_children":[1,3,5,7,9,11,13,15,-1,17,19,-1,21,23,25,27,-1,29,31,33,35,-1,-1,37,-1,39,41,-1,43,-1,45,47,49,51,53,55,57,-1,-1,59,61,63,65,-1,-1,-1,-1,-1,-1,-1,-1,-1,-1,-1,-1,-1,-1,-1,-1,-1,-1,-1,-1,-1,-1,-1,-1],"loss_changes":[1.8170668E1,2.1117609E1,1.3217254E1,4.552861E0,1.26371975E1,2.9132004E0,1.690359E1,4.5537033E0,0E0,1.96843E1,1.5106045E1,0E0,2.0552158E-1,7.722431E0,1.4165491E1,4.0178757E0,0E0,1.7553372E0,1.2867649E1,2.9555523E1,1.914757E1,0E0,0E0,1.7305158E0,0E0,8.719089E0,8.95429E0,0E0,5.020413E0,0E0,3.1010103E0,1.0041595E1,4.443054E0,1.4489619E1,1.0282682E1,1.3826808E1,1.3877525E1,0E0,0E0,1.0032382E0,5.2754297E0,3.0705109E0,6.2398424E0,0E0,0E0,0E0,0E0,0E0,0E0,0E0,0E0,0E0,0E0,0E0,0E0,0E0,0E0,0E0,0E0,0E0,0E0,0E0,0E0,0E0,0E0,0E0,0E0],"parents":[2147483647,0,0,1,1,2,2,3,3,4,4,5,5,6,6,7,7,9,9,10,10,12,12,13,13,14,14,15,15,17,17,18,18,19,19,20,20,23,23,25,25,26,26,28,28,30,30,31,31,32,32,33,33,34,34,35,35,36,36,39,39,40,40,41,41,42,42],"right_children":[2,4,6,8,10,12,14,16,-1,18,20,-1,22,24,26,28,-1,30,32,34,36,-1,-1,38,-1,40,42,-1,44,-1,46,48,50,52,54,56,58,-1,-1,60,62,64,66,-1,-1,-1,-1,-1,-1,-1,-1,-1,-1,-1,-1,-1,-1,-1,-1,-1,-1,-1,-1,-1,-1,-1,-1],"split_conditions":[1.2163511E1,-1.9015541E1,-7.7123413E0,-6.153557E0,7.6939354E0,-1.22866E1,-2.205911E-1,-2.1036537E1,-2.1707425E-1,4.224163E0,4.8868494E0,1.5965134E-1,-8.0567045E0,-2.811288E0,5.4677305E0,-1.472604E2,3.9988774E-1,-1.306241E1,-4.147831E0,5.355919E0,-1.057555E0,-2.8503487E-1,-6.100352E-2,-4.780527E0,8.6188793E-1,-3.1850486E0,9.470781E0,2.7475947E-1,-9.240108E1,2.6706806E-1,1.8391614E2,-1.0499855E1,2.137585E2,2.740566E0,4.8644595E0,2.6630073E0,8.903967E0,3.4550947E-1,-1.4076896E-2,1.2132659E0,-2.245132E0,5.9027367E0,1.1301449E1,-2.0825736E-1,9.063134E-2,-3.393803E-2,2.547153E-1,-2.589402E-1,4.9929965E-2,-2.7666333E-1,1.8042701E-1,-7.7055127E-4,-1.6893946E-1,4.48008E-1,1.1470438E-1,-9.910276E-2,7.3334503E-1,-2.0237252E-1,-2.308599E-2,3.5746846E-1,4.694448E-2,2.240534E-1,-1.8591799E-1,2.35672E-2,4.6111566E-1,-2.3638152E-1,1.5235622E-1],"split_indices":[0,5,1,7,0,4,1,1,0,0,10,0,3,2,15,6,0,0,2,13,5,0,0,6,0,15,10,0,15,0,11,11,6,9,14,7,13,0,0,13,10,14,7,0,0,0,0,0,0,0,0,0,0,0,0,0,0,0,0,0,0,0,0,0,0,0,0],"split_type":[0,0,0,0,0,0,0,0,0,0,0,0,0,0,0,0,0,0,0,0,0,0,0,0,0,0,0,0,0,0,0,0,0,0,0,0,0,0,0,0,0,0,0,0,0,0,0,0,0,0,0,0,0,0,0,0,0,0,0,0,0,0,0,0,0,0,0],"sum_hessian":[8.591216E2,7.623341E2,9.678742E1,9.068158E1,6.716525E2,9.851669E0,8.693575E1,8.76483E1,3.033286E0,1.2861897E2,5.4303357E2,1.0050832E0,8.846586E0,6.793687E0,8.014207E1,8.384359E1,3.8047097E0,1.8785019E1,1.0983395E2,3.765846E2,1.6644899E2,7.798122E0,1.0484645E0,3.779825E0,3.013862E0,2.9356144E1,5.0785923E1,9.017392E0,7.4826195E1,5.6802464E0,1.3104773E1,4.1165947E1,6.8668E1,3.4174454E2,3.484006E1,5.930349E0,1.6051865E2,1.7952718E0,1.9845532E0,4.633337E0,2.4722807E1,1.2367289E1,3.8418636E1,4.5068674E0,7.031933E1,8.923333E0,4.1814404E0,1.3119828E1,2.804612E1,6.734541E1,1.3225888E0,2.8783478E2,5.390974E1,1.4129567E1,2.0710493E1,2.8085725E0,3.1217763E0,9.455056E1,6.596809E1,2.9609585E0,1.6723783E0,2.3585873E0,2.236422E1,1.7759176E0,1.0591372E1,3.2468219E0,3.5171814E1],"tree_param":{"num_deleted":"0","num_feature":"16","num_nodes":"67","size_leaf_vector":"0"}},{"base_weights":[-5.1788602E-2,1.3289653E-1,-1.2603852E-1,8.451083E-2,1.1325785E0,-6.037923E-1,-5.8738288E-2,1.2852024E-1,-6.897535E-1,1.356488E0,-3.878031E-2,5.1657265E-1,-8.2317495E-1,6.8831486E-1,-1.034739E-1,9.412554E-2,1.1665238E0,-1.0346593E0,3.9079624E-1,2.4939649E-1,1.543113E0,-4.972559E-1,1.1412574E0,-8.7665087E-1,9.719234E-2,-3.5372153E-2,1.4451139E0,-2.795288E-1,1.0496227E-1,1.8506084E-1,-4.637845E-1,-5.844484E-1,1.5832106E0,-3.9891386E-1,8.41776E-1,4.6039397E-1,-8.265758E-1,1.7205771E0,-6.502543E-1,-9.76343E-1,-4.063668E-1,-7.1610314E-1,1.3320694E0,-5.3035635E-1,1.3667747E0,1.878855E0,-3.546638E-1,-3.598343E-1,2.4892497E-1,7.5030786E-1,4.43913E-2,4.854542E-2,5.140056E-1,-8.294415E-1,6.176354E-1,2.126451E0,-1.2186335E-1,1.2055482E-1,-1.0162122E0,8.7620735E-1,-9.684221E-1,5.2843344E-1,-9.3791926E-1,-6.6416204E-1,2.6864161E0,2.2003028E0,-8.583852E-2,1.7452736E-1,-6.325564E-1,-8.824583E-1,-2.571296E-1,1.2448691E0,8.905833E-2,9.373639E-2,1.2052969E0,-5.135567E-1,1.3704579E-1],"categories":[],"categories_nodes":[],"categories_segments":[],"categories_sizes":[],"default_left":[true,true,true,true,true,true,true,true,true,true,false,true,true,true,true,true,true,false,true,false,false,true,true,true,true,true,true,true,true,true,true,false,false,false,false,false,false,true,false,true,true,false,false,true,true,true,true,true,true,true,true,false,false,false,false,false,false,false,false,false,false,false,false,false,false,false,false,false,false,false,false,false,false,false,false,false,false],"id":14,"left_children":[1,3,5,7,9,11,13,15,17,19,-1,21,23,25,27,29,31,-1,33,-1,-1,35,37,39,41,43,45,47,49,51,53,-1,-1,-1,-1,-1,-1,55,-1,57,59,-1,-1,61,63,65,67,69,71,73,75,-1,-1,-1,-1,-1,-1,-1,-1,-1,-1,-1,-1,-1,-1,-1,-1,-1,-1,-1,-1,-1,-1,-1,-1,-1,-1],"loss_changes":[1.1084095E1,1.1122196E1,1.8489796E1,7.6631966E0,2.8396244E0,1.7884417E1,1.6985943E1,7.429657E0,4.918557E0,1.4640579E0,0E0,8.323223E0,3.0277824E0,1.5784259E1,1.7584833E1,1.0511263E1,5.8029394E0,0E0,1.6380804E0,0E0,0E0,2.072638E0,9.297892E0,2.2570496E0,5.1552196E0,1.1594003E1,1.16467705E1,1.1107199E1,8.557808E0,7.9417477E0,1.2013328E1,0E0,0E0,0E0,0E0,0E0,0E0,4.9174156E0,0E0,2.1337929E0,9.2203245E0,0E0,0E0,5.8012266E0,1.3484519E1,7.4473495E0,6.35803E-1,1.1892017E1,5.4361563E0,5.5018435E0,1.0512369E1,0E0,0E0,0E0,0E0,0E0,0E0,0E0,0E0,0E0,0E0,0E0,0E0,0E0,0E0,0E0,0E0,0E0,0E0,0E0,0E0,0E0,0E0,0E0,0E0,0E0,0E0],"parents":[2147483647,0,0,1,1,2,2,3,3,4,4,5,5,6,6,7,7,8,8,9,9,11,11,12,12,13,13,14,14,15,15,16,16,18,18,21,21,22,22,23,23,24,24,25,25,26,26,27,27,28,28,29,29,30,30,37,37,39,39,40,40,43,43,44,44,45,45,46,46,47,47,48,48,49,49,50,50],"right_children":[2,4,6,8,10,12,14,16,18,20,-1,22,24,26,28,30,32,-1,34,-1,-1,36,38,40,42,44,46,48,50,52,54,-1,-1,-1,-1,-1,-1,56,-1,58,60,-1,-1,62,64,66,68,70,72,74,76,-1,-1,-1,-1,-1,-1,-1,-1,-1,-1,-1,-1,-1,-1,-1,-1,-1,-1,-1,-1,-1,-1,-1,-1,-1,-1],"split_conditions":[-2.9488125E0,6.47025E0,-6.77231E-1,1.2692018E0,9.905662E0,-7.986884E0,-2.5293043E0,5.959914E0,1.0233469E1,-5.7119894E0,-1.1634093E-2,-1.0715931E1,1.364563E1,-1.5620613E-1,1.0333139E1,3.5507832E0,-9.083933E0,-3.103978E-1,-6.396292E-1,7.481895E-2,4.6293393E-1,5.2596483E0,6.74117E-2,2.6614056E0,-1.9710224E1,3.2641912E-1,5.578268E0,1.6606113E1,3.5987264E-1,-6.6878214E0,-8.310304E-1,-1.7533453E-1,4.749632E-1,-1.1967416E-1,2.525328E-1,1.381182E-1,-2.4797276E-1,-1.6956213E0,-1.950763E-1,-9.4709425E0,3.3995924E0,-2.1483095E-1,3.9962083E-1,-7.049271E0,3.2275686E0,4.3517923E0,5.2565867E-1,7.6180115E0,3.324545E0,2.4363687E0,2.8114161E0,1.4563627E-2,1.5420169E-1,-2.4883245E-1,1.8529063E-1,6.3793534E-1,-3.6559008E-2,3.616645E-2,-3.048637E-1,2.628622E-1,-2.9052666E-1,1.5853004E-1,-2.813758E-1,-1.9924863E-1,8.059249E-1,6.6009086E-1,-2.5751557E-2,5.235821E-2,-1.8976693E-1,-2.6473752E-1,-7.7138886E-2,3.7346074E-1,2.67175E-2,2.8120918E-2,3.6158907E-1,-1.5406702E-1,4.1113738E-2],"split_indices":[10,6,14,2,6,12,5,1,0,4,0,12,0,12,0,11,15,0,5,0,0,0,4,4,5,7,11,15,9,11,14,0,0,0,0,0,0,2,0,4,4,0,0,12,15,9,6,0,12,3,2,0,0,0,0,0,0,0,0,0,0,0,0,0,0,0,0,0,0,0,0,0,0,0,0,0,0],"split_type":[0,0,0,0,0,0,0,0,0,0,0,0,0,0,0,0,0,0,0,0,0,0,0,0,0,0,0,0,0,0,0,0,0,0,0,0,0,0,0,0,0,0,0,0,0,0,0,0,0,0,0,0,0,0,0,0,0,0,0,0,0,0,0,0,0,0,0,0,0,0,0,0,0,0,0,0,0],"sum_hessian":[8.0607806E2,2.3091728E2,5.7516077E2,2.2129109E2,9.626193E0,7.003335E1,5.051274E2,2.101785E2,1.1112596E1,7.948719E0,1.6774733E0,1.124608E1,5.8787266E1,2.7726595E1,4.7740082E2,2.0449321E2,5.6852913E0,8.455966E0,2.6566298E0,1.4836724E0,6.465047E0,4.36535E0,6.8807306E0,5.5604015E1,3.1832495E0,1.4660649E1,1.3065947E1,2.586185E2,2.187823E2,1.7640823E2,2.8084974E1,1.0154843E0,4.669807E0,1.0076267E0,1.6490031E0,1.015193E0,3.3501568E0,5.2293234E0,1.6514072E0,4.4990692E1,1.0613323E1,2.17252E0,1.0107296E0,1.1295041E1,3.365608E0,1.0493182E1,2.5727637E0,2.247794E2,3.383911E1,1.7795473E1,2.0098683E2,1.2548023E2,5.0927994E1,2.1162405E1,6.922569E0,4.158985E0,1.0703382E0,1.5069548E0,4.3483738E1,3.0635545E0,7.549769E0,3.0569518E0,8.23809E0,1.5211928E0,1.8444151E0,8.914706E0,1.5784764E0,1.0139185E0,1.5588452E0,3.5671074E1,1.8910832E2,3.7417395E0,3.0097374E1,7.7777777E0,1.0017694E1,2.7976265E1,1.7301056E2],"tree_param":{"num_deleted":"0","num_feature":"16","num_nodes":"77","size_leaf_vector":"0"}},{"base_weights":[-4.217524E-2,9.443139E-1,-5.495885E-2,-9.118134E-2,2.712983E-1,-2.05329E-2,-3.224038E-1,-7.615252E-1,3.5195887E-1,-5.501437E-2,8.5840774E-1,-6.134443E-1,-9.443823E-2,-2.06326E-1,-8.333525E-1,8.279711E-1,1.758016E-1,-8.0364816E-2,6.8874085E-1,1.1446071E0,-8.2256156E-1,-7.0937306E-1,3.897489E-1,1.9784201E0,-2.0800468E-1,1.162562E0,-1.9902346E-1,-3.7634686E-1,4.0975213E-1,1.2732639E-2,-3.455519E-1,1.0816725E0,-6.565849E-1,-7.156628E-2,1.5359564E0,5.225245E-1,-7.7870244E-1,1.113256E0,-5.649444E-1,6.5459114E-1,2.207841E0,-9.364919E-1,-7.288445E-4,2.2081582E-1,1.6188133E0,-7.6781195E-1,9.115691E-1,-9.303863E-1,3.5687006E-1,1.1146331E0,1.9323634E-1],"categories":[],"categories_nodes":[],"categories_segments":[],"categories_sizes":[],"default_left":[true,false,true,true,true,true,true,true,true,true,true,true,true,false,false,true,true,true,true,true,false,true,true,true,true,true,true,true,true,false,false,false,false,false,false,false,false,false,false,false,false,false,false,false,false,false,false,false,false,false,false],"id":15,"left_children":[1,-1,3,5,7,9,11,13,15,17,19,21,23,-1,-1,25,27,29,31,33,-1,35,37,39,41,43,45,47,49,-1,-1,-1,-1,-1,-1,-1,-1,-1,-1,-1,-1,-1,-1,-1,-1,-1,-1,-1,-1,-1,-1],"loss_changes":[9.792443E0,0E0,9.047133E0,1.123077E1,6.6447153E0,1.604893E1,1.0619165E1,6.1780453E-2,5.865237E0,9.652167E0,1.055927E1,7.061344E0,2.1933517E1,0E0,0E0,6.7920275E0,7.0767145E0,1.2178453E1,9.63406E0,8.439564E0,0E0,5.933075E0,5.3250027E0,2.591896E-2,1.3223808E1,5.892996E0,4.2030067E0,7.022705E0,5.6023808E0,0E0,0E0,0E0,0E0,0E0,0E0,0E0,0E0,0E0,0E0,0E0,0E0,0E0,0E0,0E0,0E0,0E0,0E0,0E0,0E0,0E0,0E0],"parents":[2147483647,0,0,2,2,3,3,4,4,5,5,6,6,7,7,8,8,9,9,10,10,11,11,12,12,15,15,16,16,17,17,18,18,19,19,21,21,22,22,23,23,24,24,25,25,26,26,27,27,28,28],"right_children":[2,-1,4,6,8,10,12,14,16,18,20,22,24,-1,-1,26,28,30,32,34,-1,36,38,40,42,44,46,48,50,-1,-1,-1,-1,-1,-1,-1,-1,-1,-1,-1,-1,-1,-1,-1,-1,-1,-1,-1,-1,-1,-1],"split_conditions":[-1.306241E1,2.8329417E-1,1.2344376E1,5.647071E0,-1.746029E1,7.0625134E0,8.104313E0,-2.6867967E0,6.649352E0,1.669527E1,3.730809E1,1.7145586E1,2.6936164E0,-6.18978E-2,-2.5000575E-1,5.1628914E0,5.459449E0,3.8361003E0,1.1830351E1,9.2127495E0,-2.4676847E-1,9.846921E-1,3.6270533E0,1.0223924E1,9.766336E0,5.479019E-2,9.625769E0,1.3043707E1,1.1895864E1,3.8197918E-3,-1.03665575E-1,3.2450178E-1,-1.9697548E-1,-2.1469885E-2,4.6078694E-1,1.5675735E-1,-2.3361073E-1,3.339768E-1,-1.6948332E-1,1.9637735E-1,6.623523E-1,-2.809476E-1,-2.1865335E-4,6.624475E-2,4.85644E-1,-2.303436E-1,2.7347076E-1,-2.7911592E-1,1.0706102E-1,3.3438993E-1,5.7970904E-2],"split_indices":[0,0,0,10,11,13,12,4,11,5,15,15,6,0,0,4,15,2,3,0,0,14,12,0,2,12,13,0,2,0,0,0,0,0,0,0,0,0,0,0,0,0,0,0,0,0,0,0,0,0,0],"split_type":[0,0,0,0,0,0,0,0,0,0,0,0,0,0,0,0,0,0,0,0,0,0,0,0,0,0,0,0,0,0,0,0,0,0,0,0,0,0,0,0,0,0,0,0,0,0,0,0,0,0,0],"sum_hessian":[7.713915E2,8.936136E0,7.624553E2,6.869119E2,7.554342E1,5.2698425E2,1.5992761E2,4.860878E0,7.068254E1,5.0799277E2,1.899151E1,6.950307E1,9.042455E1,1.0004311E0,3.860447E0,1.8092579E1,5.258996E1,4.921114E2,1.58813715E1,1.6501131E1,2.4903786E0,6.3704327E1,5.798739E0,3.8438745E0,8.658068E1,1.354701E1,4.545568E0,1.5470128E1,3.711983E1,3.649447E2,1.27166695E2,1.2443077E1,3.4382944E0,4.2161083E0,1.2285023E1,3.0458858E0,6.065844E1,3.2042983E0,2.594441E0,1.1368917E0,2.7069829E0,1.8398746E1,6.818193E1,4.9055223E0,8.641488E0,3.210144E0,1.3354243E0,8.658563E0,6.8115654E0,7.7479243E0,2.9371906E1],"tree_param":{"num_deleted":"0","num_feature":"16","num_nodes":"51","size_leaf_vector":"0"}},{"base_weights":[-3.1539865E-2,-4.296439E-2,9.112409E-1,2.1012796E-1,-8.533496E-2,8.8767916E-2,5.4851586E-1,-2.7752405E-1,6.556907E-3,2.4932502E-1,-4.6515408E-1,6.823464E-1,-5.466773E-1,-3.3470377E-1,6.468248E-1,2.7297202E-1,-1.1267924E-1,9.157942E-1,1.545694E-1,8.149277E-1,-8.500711E-1,3.1785946E-2,9.504806E-1,-8.051615E-1,-1.326394E-1,-1.6351375E-1,-7.726698E-1,-7.0853657E-1,1.0045352E0,9.923353E-2,1.0949945E0,-7.1452117E-1,-5.1925533E-2,-6.44693E-1,2.3727286E-1,-2.3504028E0,-3.2615322E-1,8.107128E-1,-8.3444977E-1,1.0041534E0,6.972499E-2,-4.091578E-1,1.2863696E-1,-2.568996E-1,-8.8801485E-1,1.4352632E0,1.2585942E-1,7.117548E-1,-1.4999074E-1,1.6350102E0,2.8202853E-1,-8.103143E-1,4.796501E-1,3.4181976E-1,-2.338395E-1],"categories":[],"categories_nodes":[],"categories_segments":[],"categories_sizes":[],"default_left":[true,true,false,true,true,true,true,true,true,true,true,true,true,true,true,true,true,false,true,false,true,true,true,false,false,true,true,false,true,true,true,true,true,false,false,false,false,false,false,false,false,false,false,false,false,false,false,false,false,false,false,false,false,false,false],"id":16,"left_children":[1,3,-1,5,7,9,11,13,15,17,19,21,23,25,27,29,31,-1,33,-1,35,37,39,-1,-1,41,43,-1,45,47,49,51,53,-1,-1,-1,-1,-1,-1,-1,-1,-1,-1,-1,-1,-1,-1,-1,-1,-1,-1,-1,-1,-1,-1],"loss_changes":[8.042372E0,7.900951E0,0E0,4.2923055E0,1.11350565E1,7.1415396E0,4.434512E0,1.0995472E1,1.3609598E1,3.7672112E0,9.611462E0,4.354722E0,2.7555192E-1,1.4322702E1,6.637117E0,1.8808151E1,1.0786081E1,0E0,3.814567E0,0E0,1.0556992E1,6.3249407E0,7.6984024E-1,0E0,0E0,1.0087298E1,2.9778976E0,0E0,3.6355467E0,1.696662E1,9.6409645E0,3.4844418E0,1.9415342E1,0E0,0E0,0E0,0E0,0E0,0E0,0E0,0E0,0E0,0E0,0E0,0E0,0E0,0E0,0E0,0E0,0E0,0E0,0E0,0E0,0E0,0E0],"parents":[2147483647,0,0,1,1,3,3,4,4,5,5,6,6,7,7,8,8,9,9,10,10,11,11,12,12,13,13,14,14,15,15,16,16,18,18,20,20,21,21,22,22,25,25,26,26,28,28,29,29,30,30,31,31,32,32],"right_children":[2,4,-1,6,8,10,12,14,16,18,20,22,24,26,28,30,32,-1,34,-1,36,38,40,-1,-1,42,44,-1,46,48,50,52,54,-1,-1,-1,-1,-1,-1,-1,-1,-1,-1,-1,-1,-1,-1,-1,-1,-1,-1,-1,-1,-1,-1],"split_conditions":[2.2008557E2,-1.2908581E1,2.7337226E-1,8.08413E0,-9.489485E-1,6.898241E0,-4.4336443E0,1.4229196E1,2.474313E0,-7.214939E1,-2.636291E1,-3.9089928E1,-8.899074E0,-2.0424102E-1,8.594454E0,8.0041275E0,4.6092165E-1,2.7473828E-1,-9.240108E1,2.4447832E-1,-2.429781E1,-2.9827929E1,-1.3290337E1,-2.4154845E-1,-3.979182E-2,-4.3300137E-1,-1.402947E-1,-2.1256098E-1,1.2038257E1,-2.0306153E0,6.1675563E0,1.2897798E1,6.479565E0,-1.9340791E-1,7.118186E-2,-7.0512086E-1,-9.784597E-2,2.4321385E-1,-2.5033495E-1,3.0124602E-1,2.0917498E-2,-1.2274735E-1,3.8591087E-2,-7.706988E-2,-2.6640448E-1,4.3057898E-1,3.775783E-2,2.1352644E-1,-4.4997223E-2,4.905031E-1,8.460856E-2,-2.430943E-1,1.4389504E-1,1.0254593E-1,-7.015185E-2],"split_indices":[11,10,0,0,15,0,7,6,10,4,14,11,1,9,0,1,6,0,15,0,14,10,10,0,0,12,1,0,7,6,12,15,5,0,0,0,0,0,0,0,0,0,0,0,0,0,0,0,0,0,0,0,0,0,0],"split_type":[0,0,0,0,0,0,0,0,0,0,0,0,0,0,0,0,0,0,0,0,0,0,0,0,0,0,0,0,0,0,0,0,0,0,0,0,0,0,0,0,0,0,0,0,0,0,0,0,0,0,0,0,0,0,0],"sum_hessian":[7.420463E2,7.34105E2,7.9413857E0,1.0470582E2,6.293991E2,7.799564E1,2.6710173E1,2.0293872E2,4.2646042E2,6.089485E1,1.710079E1,2.413757E1,2.5726037E0,1.917171E2,1.1221613E1,1.3145494E2,2.9500546E2,6.501483E0,5.4393368E1,3.6951222E0,1.3405668E1,7.371358E0,1.676621E1,1.0022448E0,1.5703589E0,1.3882658E2,5.2890514E1,2.138417E0,9.083196E0,1.09444115E2,2.2010828E1,2.6062517E1,2.6894296E2,4.463359E0,4.993001E1,2.5673633E0,1.0838305E1,3.9150274E0,3.4563308E0,1.5671116E1,1.0950948E0,7.519835E1,6.362824E1,1.0256295E1,4.263422E1,5.6702123E0,3.4129834E0,3.1115448E1,7.832867E1,1.2618066E1,9.392762E0,2.4424679E1,1.6378384E0,8.471083E1,1.8423213E2],"tree_param":{"num_deleted":"0","num_feature":"16","num_nodes":"55","size_leaf_vector":"0"}},{"base_weights":[-2.3805888E-2,9.0871793E-1,-3.433552E-2,-4.357895E-2,8.8896793E-1,8.644032E-1,-5.2311115E-2,-2.3014365E-1,6.2943054E-3,-1.4875262E-2,-5.2471083E-1,6.870139E-1,-1.3148982E-2,-1.0613453E-1,8.656422E-1,-7.4027216E-1,-2.0252953E-1,4.431092E-2,9.31772E-1,-7.3696727E-1,1.9709088E-2],"categories":[],"categories_nodes":[],"categories_segments":[],"categories_sizes":[],"default_left":[true,false,true,true,false,false,true,true,true,true,true,true,true,false,false,false,false,false,false,false,false],"id":17,"left_children":[1,-1,3,5,-1,-1,7,9,11,13,15,17,19,-1,-1,-1,-1,-1,-1,-1,-1],"loss_changes":[7.087797E0,0E0,6.111858E0,5.6388583E0,0E0,0E0,7.293894E0,1.0991773E1,6.9874787E0,8.228E0,4.9347057E0,2.264904E0,1.2229483E1,0E0,0E0,0E0,0E0,0E0,0E0,0E0,0E0],"parents":[2147483647,0,0,2,2,3,3,6,6,7,7,8,8,9,9,10,10,11,11,12,12],"right_children":[2,-1,4,6,-1,-1,8,10,12,14,16,18,20,-1,-1,-1,-1,-1,-1,-1,-1],"split_conditions":[-1.306241E1,2.726154E-1,1.1457796E2,-1.7474716E2,2.666904E-1,2.5932097E-1,8.131989E0,-3.093575E0,-1.843896E1,-3.123654E0,7.0538273E0,-3.0929071E1,-9.905458E0,-3.1840358E-2,2.5969267E-1,-2.2208166E-1,-6.0758863E-2,1.3293277E-2,2.795316E-1,-2.2109018E-1,5.9127267E-3],"split_indices":[0,0,15,1,0,0,0,3,10,7,6,13,1,0,0,0,0,0,0,0,0],"split_type":[0,0,0,0,0,0,0,0,0,0,0,0,0,0,0,0,0,0,0,0,0],"sum_hessian":[7.176577E2,7.060558E0,7.1059717E2,7.044971E2,6.1000996E0,5.7772803E0,6.987198E2,1.7246483E2,5.2625494E2,1.0025178E2,7.221305E1,1.3660472E1,5.125945E2,9.163403E1,8.617742E0,4.248799E1,2.9725056E1,4.093227E0,9.567245E0,2.1328482E1,4.9126602E2],"tree_param":{"num_deleted":"0","num_feature":"16","num_nodes":"21","size_leaf_vector":"0"}},{"base_weights":[-1.630769E-2,8.697146E-1,-2.4479458E-2,-5.569496E-2,2.2356959E-1,1.5644573E-2,-2.1543711E-1,-7.3463094E-1,2.808157E-1,-1.0006619E-1,2.991218E-1,3.8969716E-1,-3.2889882E-1,7.8002524E-1,1.6246845E-1,-1.2922439E-1,1.473211E0,1.0354326E0,1.6305469E-1,-4.0719575E-1,1.3924026E0,-6.46092E-1,1.8799309E-2,2.758034E-1,1.4818109E0,-3.849489E-1,4.3292585E-1,2.6754057E-2,-5.187464E-1,-3.322786E-1,2.6827328E0,1.6727663E0,-4.9657387E-1,-6.632329E-2,5.6012833E-1,-6.061069E-1,1.0405501E0,1.9549158E0,-4.6463183E-1,-7.78428E-1,3.8670716E-1,3.90749E-1,-3.2756782E-1,5.66426E-1,-6.017025E-1,-5.1146066E-1,8.644448E-1,1.2271965E0,2.3242328E-1],"categories":[],"categories_nodes":[],"categories_segments":[],"categories_sizes":[],"default_left":[true,false,true,true,true,true,true,false,true,true,true,true,true,true,true,true,true,true,true,true,true,true,true,true,false,true,true,false,false,false,false,false,false,false,false,false,false,false,false,false,false,false,false,false,false,false,false,false,false],"id":18,"left_children":[1,-1,3,5,7,9,11,-1,13,15,17,19,21,23,25,27,29,31,33,35,37,39,41,43,-1,45,47,-1,-1,-1,-1,-1,-1,-1,-1,-1,-1,-1,-1,-1,-1,-1,-1,-1,-1,-1,-1,-1,-1],"loss_changes":[5.124308E0,0E0,5.4273653E0,7.091221E0,4.5050945E0,1.4163486E1,1.3316317E1,0E0,4.2850437E0,1.4261484E1,1.236953E1,2.5166447E1,1.7911171E1,4.5620527E0,9.290733E0,1.8366896E1,1.3256049E1,1.9707258E1,9.765934E0,5.793208E0,1.5385311E1,1.1904644E1,